5691 50
</s> 0.008005 0.008839 -0.007661 -0.006556 0.002733 0.006042 0.001882 0.000423 -0.007207 0.004437 -0.008713 0.002499 -0.001503 -0.001914 -0.006631 -0.003764 0.005159 0.006051 0.005938 0.003195 0.003090 -0.007605 -0.008192 0.009939 0.007603 0.006180 -0.001208 0.008031 -0.000990 0.001469 -0.000298 -0.005966 0.002625 -0.002675 -0.007651 0.009508 0.008759 -0.002190 -0.000452 0.001018 -0.007275 -0.008014 0.009109 0.000126 -0.005165 -0.006084 -0.006153 0.003394 0.000403 0.002662 
， 0.025181 0.228680 -0.308688 -0.289297 0.005645 0.448411 -0.115976 -0.400391 0.227533 -0.005040 -0.227113 0.161106 -0.069948 -0.318878 -0.089219 0.156138 0.086541 -0.040091 0.295325 0.042627 0.064336 -0.153502 0.270211 -0.371571 -0.145204 0.124895 -0.643571 0.356294 -0.218970 0.568350 0.100905 0.162165 -0.190703 0.031187 -0.529616 0.226484 0.096060 0.302383 0.352673 0.025746 -0.101197 0.141787 0.094901 0.059950 0.123205 0.148032 0.235448 0.227094 0.098918 -0.146932 
的 0.671250 -0.069452 0.189203 -0.240852 -0.261170 0.453861 -0.335959 -0.001177 -0.202622 0.001668 -0.338554 -0.275692 -0.307808 -0.130378 0.271961 -0.242547 -0.162949 -0.229157 0.374598 -0.188879 -0.199356 -0.261647 -0.187275 0.268511 0.297662 0.066270 -0.762165 0.218244 -0.042922 0.510965 -0.002109 0.541165 0.096729 -0.092308 -0.611349 0.255368 0.232100 -0.034988 -0.325681 0.057952 -0.364460 0.149386 0.028168 -0.378877 0.209130 0.469430 -0.154417 0.088536 0.612138 -0.257154 
。 0.497260 -0.174960 0.447491 -0.740880 -0.553320 0.151567 0.161321 -0.046762 -0.352081 0.274249 0.143542 -0.479116 0.147759 0.064724 -0.146348 0.829635 -0.503057 -0.166281 0.008015 0.384722 -0.487691 -0.225973 -0.368138 -0.232069 0.351920 0.300393 -0.682455 0.058747 -0.248032 0.372973 0.402696 0.222333 0.095625 -0.040391 -0.420692 -0.410343 0.342676 -0.703766 -0.159386 -0.177292 -0.179949 0.173355 -0.006361 0.192594 -0.135660 0.568703 -0.282025 0.148865 -0.018020 -0.556822 
一 0.336063 -0.224028 0.647656 0.026963 -0.230619 0.101969 -0.209733 -0.370896 0.496033 -0.017744 -0.655882 0.353902 -0.720836 -0.049863 0.423553 0.213135 0.290047 0.429120 0.186415 0.532058 0.200113 0.306448 0.283019 -0.035432 -0.327187 0.073305 -0.514216 0.600185 -0.212078 1.180161 -0.056463 0.700631 -0.103343 -0.230879 -0.205978 1.012547 1.139117 -0.369632 0.322171 0.451028 -0.420660 0.355272 -0.213700 -0.502040 -0.085906 0.166899 0.340320 0.551354 0.220906 0.345226 
、 -0.400025 -0.731679 -0.051970 0.259389 -0.357347 -0.759308 0.324620 0.620823 -0.667005 0.477648 0.263365 -0.514168 -0.428799 -0.478016 0.218726 -0.529010 0.660181 -0.342720 0.280151 0.048315 -0.188377 -0.009670 -0.665967 1.663802 0.335532 -0.699747 0.709677 -1.010222 0.684865 -0.661637 -0.650467 -1.029728 0.522000 0.496218 0.553010 -1.657736 -0.342297 -0.198075 -1.775379 -1.023186 -0.887723 -0.560616 -0.156560 0.645134 -0.779081 -0.115126 -0.268942 -0.904615 -0.647818 0.174869 
1 -2.276820 0.758693 0.463894 0.275382 -0.931699 0.442684 -0.022264 0.665314 0.833554 0.382302 -0.686190 -0.613329 -0.111411 -0.330895 -2.393842 1.475258 2.273627 0.761057 -0.810616 -0.561148 0.583495 1.150388 0.317630 -1.625892 -1.501043 -1.370628 0.181738 0.754849 2.209167 -1.200843 -2.129057 -0.724638 -0.998750 -1.575866 1.814232 0.054495 -0.613131 1.197845 2.456027 0.051978 0.687250 -0.073315 -0.866587 0.563123 0.774419 -1.851269 -0.745679 -0.077423 -0.926860 -0.172164 
人 -0.619605 -0.360546 0.216221 -1.154301 -0.316206 0.174684 0.140069 -0.532023 0.486287 -0.656526 -0.277794 -0.069095 0.879344 0.306571 0.588881 -0.384517 0.462651 -0.614994 0.212041 0.698515 0.119269 -0.375353 0.188192 0.644196 0.076462 0.521545 -0.453071 0.284768 -0.528006 -1.011068 0.077354 0.872438 -0.458470 0.124174 0.202763 0.441849 -0.382500 -0.090709 0.612771 0.077725 -0.037670 -0.209474 -0.171729 0.030255 1.148664 0.530573 -0.017394 0.017585 -0.046243 -0.767232 
在 -0.516950 0.179421 -0.376436 -0.083607 0.226713 0.272869 -0.230858 -0.232630 0.857397 0.033396 -0.428837 0.123748 -0.375704 0.091834 0.267026 0.069295 -0.035861 -0.048384 0.222366 -0.013685 0.310868 0.013815 0.065431 -0.134390 -0.385571 -0.469625 -0.670703 0.307292 -0.586636 0.513545 -0.178486 0.048073 -0.881425 0.446615 0.094574 0.523481 0.226543 0.058962 0.210115 0.649388 -0.308373 0.236595 0.124689 -0.109050 0.058740 -0.432915 0.245550 0.387024 0.494485 0.530963 
0 -2.297364 0.044513 0.126970 0.292009 -1.365632 0.613017 -0.363884 0.840480 1.107050 0.772515 -0.919384 -1.129315 -0.041246 -0.073498 -3.093753 1.581765 2.006990 0.483680 -0.503647 0.176214 0.133032 0.567133 0.233133 -1.496475 -0.867935 -0.133129 0.071054 0.486167 2.306464 -0.407954 -1.630706 0.031723 -1.050443 -2.764895 0.823089 -0.263393 -0.208810 1.184462 1.588575 0.064265 1.324213 0.357972 -0.649234 0.677258 0.777758 -2.286041 -0.255293 0.214462 -1.009501 -1.021673 
是 1.275880 0.452655 -0.132461 -0.439661 -0.362433 0.351511 -0.231376 -0.647977 -0.454162 -0.189699 -0.882129 0.388060 -0.302234 0.116017 0.324945 -0.341453 -0.327538 -0.326700 0.838342 -0.177417 0.574815 -0.210525 0.741035 0.151572 0.059350 0.475590 -0.378790 0.239790 -0.765454 0.540302 0.457807 1.225703 0.423686 -0.624405 -0.788558 0.937703 0.524084 0.265089 0.297415 0.143110 -0.282919 0.896305 1.210479 -0.254951 0.606414 0.593119 0.058990 0.335419 0.895109 -0.131150 
“ 0.618818 -0.083088 0.210302 -0.104363 -0.160183 -0.099685 -0.435640 -0.395799 -0.333026 -0.138228 -0.192234 0.494174 -0.647894 0.530368 0.438981 -0.238330 -0.174850 0.270762 0.014650 0.268111 0.387986 0.369193 1.143871 0.435698 0.402992 -0.332603 0.702371 0.658851 -0.762680 -0.340003 0.148199 0.612539 0.951032 0.240696 -0.648947 0.878058 0.864215 -0.440001 -0.252418 0.193868 0.121578 0.236537 0.438190 -0.132766 0.422839 0.083778 -0.750213 0.245598 -0.140463 0.477463 
” 0.491947 -0.312707 0.483093 0.053971 -0.442573 -0.357161 -0.126295 -0.081989 -0.344037 -0.027707 0.072023 0.350176 -0.623684 0.210085 0.514989 -0.192504 -0.273826 0.299521 -0.203423 -0.119283 0.299882 0.624302 0.889025 0.636531 0.017582 -0.526059 1.026186 0.654497 -0.866797 -0.459678 0.100213 0.324120 1.130448 0.047341 -0.434382 0.470348 0.835132 -0.958897 -0.297487 0.261560 0.188886 0.048108 0.017605 -0.050506 0.485294 0.133993 -0.597775 0.045491 -0.623110 0.514559 
了 0.256634 0.333462 0.274047 -0.088438 -0.206322 0.059935 0.464680 -0.733250 0.522910 -0.152352 0.134141 0.522624 -0.122750 -0.125062 -0.209902 0.345810 0.069960 0.568125 0.170878 0.609846 0.093473 -0.242802 0.376535 -0.397097 -0.141499 -0.061335 -0.828040 0.898353 -0.212365 0.557878 -0.254424 0.199967 0.395057 -0.001472 -1.134204 0.616390 0.172148 0.038297 0.159752 0.718668 0.457452 0.202939 0.183081 -0.117081 0.069295 0.339350 0.312468 0.631207 0.083746 -0.136674 
有 0.576546 -0.222868 -0.140157 -0.587753 -1.054193 0.174268 -0.616505 -0.195363 -0.535088 -0.299526 -0.456146 -0.040451 0.249109 -0.234785 -0.163038 -0.641396 -0.178578 -0.312538 0.596230 0.427513 0.120574 -0.467662 0.773472 -0.511340 0.107737 0.202352 -0.932059 -0.330877 -1.070983 0.237938 0.788044 0.931566 -0.262366 -0.530112 -0.893123 0.357042 -0.245429 0.137875 0.267427 0.246366 -0.476829 0.784137 0.457162 -0.276114 0.452692 0.683518 0.138128 -0.024508 0.840253 -0.746187 
不 1.299715 0.578837 -0.113912 -1.308803 -0.780210 0.720152 0.023942 -1.113455 -0.882510 -0.104851 0.003298 -0.064335 0.640506 -0.133651 0.322284 -0.198473 -0.912514 -0.723046 0.596549 0.435058 0.651152 -0.704944 0.628588 -0.973164 0.100800 0.874459 -1.059980 -0.336378 -1.604282 0.657515 0.698926 0.426558 0.718211 -0.270825 -1.528779 0.380701 0.754664 0.107010 -0.153350 0.094147 0.416997 0.652798 1.045053 0.732598 0.457100 0.786282 0.144762 0.257326 0.470366 -0.091494 
中 -0.171839 -0.955726 0.050536 0.382536 0.111436 0.347408 0.121344 0.127177 -0.083417 -0.023266 -0.234397 0.164001 -0.137849 0.357894 0.829819 -0.175801 0.545532 -0.096900 0.200227 -0.692467 -0.164185 -0.054019 -0.005829 0.784685 0.280398 -0.168586 0.500933 1.029237 0.583534 -0.024500 -0.651833 -0.358463 -0.570538 0.397258 0.696904 -0.374609 -0.809865 0.584453 0.045107 0.105343 -0.484760 0.533360 -0.746936 0.075056 0.254101 -0.702051 0.225365 -0.067685 0.927788 -0.261526 
年 -1.637998 1.151854 -0.432197 -0.074047 -0.792335 -0.372669 0.321621 -0.788561 1.172306 0.602178 -1.230005 -0.526141 -0.547676 -0.553632 -1.194656 0.925653 0.993312 -0.219695 -0.668919 -0.990109 0.137130 -0.356216 0.487415 -1.179561 -0.120449 -0.583783 0.237372 1.889853 0.825971 1.099160 -1.308520 -0.099999 -1.351333 -1.495988 0.931241 0.585711 0.049490 1.527310 1.567686 -0.757981 0.509843 -0.161399 0.010339 -0.373342 1.639891 -1.788601 -0.585941 0.301077 0.193765 0.391031 
2 -2.314673 0.628758 0.457855 0.640462 -1.137785 0.538205 -0.158510 0.893380 1.047620 0.327372 -0.657187 -0.834969 -0.231463 -0.178944 -2.608447 1.655981 1.992854 0.839293 -0.612974 -0.557741 0.673815 0.759053 0.340093 -1.541742 -1.118852 -0.897185 0.591533 0.738992 2.281188 -0.792956 -1.832300 -0.554287 -0.997669 -1.778294 1.723882 -0.230077 -0.427298 1.386549 2.236387 0.023332 0.690484 0.081393 -0.763300 0.288305 0.692749 -2.283747 -0.734440 -0.035606 -0.976733 -0.451263 
大 -0.552343 -0.853848 0.495821 0.342909 -0.575698 0.602502 0.340635 0.718189 0.095342 0.133144 -0.494532 -0.101296 -1.056861 0.204012 1.190043 0.258136 0.306002 -0.327582 0.273899 -0.448658 -0.329845 0.164102 0.520837 0.797145 0.329853 -0.192824 0.411392 0.529322 -0.139128 0.469221 0.058036 0.099950 -0.220567 -0.200561 -0.361885 0.477863 -0.359113 0.680200 -0.806651 -0.357011 -0.090403 -0.326690 -0.190231 0.378785 0.091563 -0.065377 0.305945 0.417666 0.508933 -0.144022 
国 0.011573 -1.710990 -1.457862 0.311565 0.498790 1.033040 0.440181 0.628057 0.076468 -0.320914 -0.439479 0.019348 -0.056065 1.004552 0.707500 -0.197809 -0.368975 -0.421041 0.470564 -2.496707 -0.434709 -0.246359 0.340503 0.966267 0.314114 -0.201498 0.484880 0.821435 0.345249 0.166773 -1.155288 -1.033814 -0.449655 -0.039602 1.897389 0.019310 -1.744700 1.614615 -0.344129 0.552096 -0.576176 0.877555 -0.988990 1.146154 0.493152 -0.740748 -0.629539 0.164289 1.871183 -0.778033 
上 0.099694 0.340383 -0.024395 0.210104 0.000030 0.705077 -0.201830 -0.090722 0.187375 0.136864 -0.735846 -0.204554 -1.151216 0.169359 0.212047 -0.077851 0.832671 0.895388 0.240235 0.423419 0.371423 0.092749 0.427182 -0.694282 -0.326411 -0.544359 -1.012049 0.517145 -0.080448 0.279917 -0.348539 -0.172151 -0.486580 0.573823 0.273553 0.525848 0.858042 -0.015234 0.486087 0.415894 -0.183006 0.001176 -0.283838 0.410412 0.043094 -0.381096 0.093731 0.537816 0.207820 0.286520 
为 0.775718 -0.054915 -0.207477 -0.519174 -0.459381 0.394154 -0.200382 0.032152 -0.166452 0.306068 -0.354113 0.152826 0.036284 -0.267860 0.110472 -0.169987 -0.378593 -0.234330 -0.110414 -0.429432 0.191290 -0.271104 0.266367 0.888067 0.144880 0.257656 0.062403 -0.131314 0.037531 -0.019770 -0.082767 0.407259 0.454658 -0.383080 0.118278 -0.212642 0.241742 0.255984 0.753006 -0.245351 0.443581 0.270155 -0.087701 0.254936 0.478897 0.069320 -0.327785 -0.407283 0.214854 -0.816971 
和 0.095440 -0.869963 -0.009468 -0.547658 -0.075104 0.245952 0.168389 0.012403 -0.106780 0.138958 0.016098 -0.422223 0.255590 0.118011 0.094124 -0.414499 -0.232871 -0.682050 0.472052 -0.331706 -0.565022 -0.632133 -0.579552 1.197393 0.319856 -0.423732 -0.045311 -0.422045 0.529998 0.146013 -0.495089 -0.048485 0.216644 0.382047 0.058792 -0.621800 -0.386797 0.069660 -0.483277 -0.619022 -1.255433 -0.442070 -0.557616 0.772821 -0.471992 0.147913 -0.582694 -0.477401 0.234606 -0.211474 
会 0.445840 -1.821233 -0.072040 -1.080478 -0.528133 -0.123502 0.774044 -0.986341 1.045474 -0.846337 -1.048775 0.727036 0.323415 -0.315670 1.035824 0.807018 0.489535 -0.599075 -0.314475 0.142349 -0.608351 -1.795625 0.140122 -0.764410 1.318303 -0.076077 0.329448 0.677212 -0.246036 0.186998 -0.635402 -0.846700 -0.265852 0.385213 0.944816 0.125445 -1.285618 0.896722 -1.008052 -1.035857 -1.171084 0.402888 -0.397915 0.682901 -0.922507 0.241096 -0.802923 1.012533 0.714500 0.539535 
到 -0.497179 0.546682 0.462329 -0.641922 0.007612 0.252496 0.634868 -0.764979 0.941668 0.089257 -0.240183 -0.115125 0.131625 -0.383483 -0.360200 1.345194 0.488679 0.644017 0.509363 1.235003 0.268222 0.337352 -0.217242 -0.512680 -0.541144 0.119715 -1.247223 0.315021 -0.521309 -0.319773 -0.046960 1.132557 -0.783772 0.504846 -0.558590 1.355131 -0.072563 -0.259133 0.354837 0.974360 0.074322 -0.092728 0.981046 0.112565 0.157633 0.200921 0.765378 0.463556 0.197879 -0.103833 
时 -0.163548 0.987350 0.221876 -0.506597 0.487766 0.289837 0.349465 -0.734162 0.791165 0.086189 -0.559477 -0.592821 -0.057999 0.290011 -0.876885 0.916421 0.647493 -0.192662 -0.051223 0.029800 0.391227 -0.099958 0.019733 -1.453991 -0.823820 0.450639 -1.914115 0.184530 -0.491310 -0.147074 0.387766 -0.910229 -0.619353 0.943374 -0.247114 0.605063 0.988118 0.015919 0.998368 0.472810 -0.407240 -0.000128 0.130603 -0.434354 -0.328854 -0.033557 0.646164 0.268221 0.173186 0.745430 
日 -1.862887 1.081101 -0.790953 -0.023717 0.529134 0.786343 0.549081 0.151953 0.937151 -0.221426 0.547026 0.236543 -0.328707 0.383430 -0.889447 0.967204 1.505352 0.489539 -1.655820 -1.551963 0.531177 -0.179722 0.242777 -1.477931 -0.989871 -1.423216 -0.165145 1.418013 0.559822 -1.595949 -1.952971 -2.234881 -0.683480 0.713528 1.912837 0.762011 -0.882556 1.164365 2.258383 0.339766 0.561984 0.068847 -0.166686 0.362998 0.791161 -1.505495 -0.023406 0.426568 0.126123 1.105622 
发 0.549942 0.277327 -0.901620 0.451116 0.308943 0.609368 -0.017616 -0.062761 1.508323 0.351108 1.040359 0.209065 -0.942002 -0.298193 0.924896 0.464749 -0.199567 -0.312636 -0.168201 -0.127853 -0.773928 0.314820 0.227659 -0.251299 0.930444 -1.232759 -0.472815 0.029995 0.623025 0.297985 -0.538631 -0.126075 -0.557110 0.530204 -0.787905 -1.341370 -1.452477 0.187431 -0.006633 0.348948 -0.468608 -0.125755 -1.250713 0.355920 -0.401269 -0.322256 -0.727673 0.606306 -0.343831 -0.594483 
出 0.420026 0.178066 -0.227662 0.282606 0.215685 0.449762 0.110074 0.585586 0.700602 0.651886 -0.043131 0.890906 -0.441217 0.053377 -0.045496 0.021596 0.177051 0.653551 0.876203 0.145395 -0.353967 -0.214619 0.687141 -0.108951 0.674190 0.199351 -0.693123 0.071644 0.010711 0.320901 0.200075 0.575729 -0.422236 1.178423 -0.063962 -0.098512 0.442431 -0.228543 0.268609 -0.236607 0.467682 0.405397 -0.282362 0.069444 -0.472054 -0.344521 -0.497296 0.848462 0.013023 -0.483674 
生 0.962002 0.907874 -0.322866 0.073444 -0.755434 -0.136623 0.166148 -1.458115 0.760118 0.113842 0.342604 0.083670 -0.523243 -0.235641 0.736885 0.542526 -0.171452 -1.470280 0.622276 0.407256 -1.087924 -0.181443 -1.582476 0.901842 -0.738721 -0.719939 0.221395 0.068860 0.364728 -1.036535 0.314187 1.443371 -0.184513 -0.486595 -0.614406 -0.822379 -0.001837 0.785722 0.240464 -0.425496 -0.463799 0.529757 -0.678664 -0.092162 1.109780 0.989396 -0.429685 -0.939530 -0.134379 0.727912 
这 1.369851 -0.195299 0.545887 -0.730537 -0.246812 0.380909 -0.518662 -0.832347 -0.499113 -0.613746 -1.001177 1.289357 -1.108032 -0.363623 0.253022 0.109855 0.154303 0.367664 0.577988 0.448363 0.465037 0.533467 0.244466 -0.564511 0.071240 0.754555 -0.041607 0.437609 -0.562367 0.510849 0.047421 1.379460 -0.059598 -0.438418 -1.119860 1.120562 0.370715 0.091364 0.256601 1.354073 -0.439699 1.238045 1.009859 -0.646092 0.878752 0.679765 0.179253 0.318158 0.760273 -0.241095 
个 0.041051 -0.028288 0.544280 -0.210774 -1.307539 -0.101393 -0.220467 -0.471333 0.463495 0.296104 -0.484768 0.249654 -0.402969 0.354531 -0.412236 0.212315 0.525115 -0.398780 0.610529 0.501897 0.215851 -0.562926 0.860029 0.276036 -0.679960 -0.195017 -0.940006 0.480299 0.752809 0.651402 -0.316683 1.107089 -0.498935 -1.130406 -0.821845 1.630758 1.219989 0.521711 0.430039 0.150056 -0.405480 0.301570 -0.249371 -0.915765 0.594776 -0.761373 0.084020 0.354566 0.571555 0.032908 
行 0.495647 0.599439 -0.222058 0.388440 -0.877083 -0.345618 0.509695 -0.005316 0.005324 1.057122 0.590241 0.035431 0.378497 -1.723366 -0.332955 -0.144774 0.424070 0.108633 -0.581156 0.326189 -0.278976 -0.624927 0.848761 0.589405 0.236178 1.042915 0.668205 0.895691 -0.178915 0.741801 0.219845 -1.479093 -0.784743 1.284638 1.134901 -1.344599 0.036785 -0.596631 -0.106471 0.310665 -1.230441 0.006935 -1.203440 1.013498 -1.815157 -0.066649 -0.501756 -0.804559 0.462345 -1.179270 
3 -1.947734 0.253384 0.458552 0.500923 -1.352242 0.525804 -0.453275 1.197370 0.746041 0.467861 -0.912316 -0.942681 -0.312456 -0.196680 -2.226065 1.602970 1.986318 0.994185 -0.345668 -0.225574 0.747993 0.782780 -0.061261 -1.152805 -1.041639 -0.695252 0.046276 0.385718 2.147450 -0.752986 -1.674943 -0.396116 -1.119600 -2.018432 1.121295 0.006248 -0.289885 1.371064 2.001174 0.363851 0.757399 0.041870 -1.064664 0.601673 0.698611 -1.839800 -0.534281 -0.035880 -1.059799 -0.671424 
对 0.279002 -0.448338 -0.447507 -0.468497 0.456712 0.954187 -0.036314 -0.141871 -0.728021 -0.383612 -0.050633 0.837254 0.743365 -0.353349 0.686879 -0.025584 -0.450181 -0.495879 0.249355 -0.287791 0.242616 -0.300187 0.164823 0.529168 0.699238 0.856417 -0.712886 -0.185473 0.005063 0.067338 0.153967 0.226516 -0.309374 1.205114 -0.230352 -0.069862 -0.477943 0.109028 0.975492 -0.025748 -0.586210 0.417611 -0.442383 0.340096 -0.164397 0.120627 -0.873681 0.020189 0.545058 -0.278173 
要 1.055161 -0.015969 0.436433 -0.257568 0.132470 0.385298 0.883554 -1.104913 -0.491769 0.118987 -0.083074 0.715550 1.630767 -0.905918 -0.394608 0.266809 0.901993 -0.472588 1.711407 0.578458 -1.221643 -2.207463 -0.077579 0.448929 0.721150 0.694401 -0.944756 -0.855420 -0.743403 1.260771 -0.465341 1.088670 1.414641 0.281831 -0.639433 -0.036185 0.643733 0.734386 0.346925 -0.569144 -0.846848 0.536700 -0.097277 0.565335 -1.206009 0.675795 -0.364592 0.114865 0.407545 -0.095513 
家 -0.973895 0.070614 -0.946076 -0.570316 -0.724996 -0.226943 -0.124704 -0.860482 1.635934 -0.508410 -0.449653 -0.189400 0.082154 0.137282 1.211588 -0.596165 0.163593 0.262283 0.704880 0.913595 -0.007098 -0.589564 -1.090584 1.236387 -0.689899 -0.366397 -0.270550 0.407591 -0.366012 -0.402368 -0.004104 0.574350 -0.310597 -0.351983 -0.772696 0.762386 0.268810 0.972927 -0.362064 0.433551 -0.384360 0.487494 0.274363 0.619136 0.169496 0.154866 0.003358 0.143216 0.622359 -0.312685 
来 -0.286514 0.711779 0.088590 0.080880 0.354274 0.544431 0.671999 -0.549116 0.636293 0.139760 -0.266362 -0.410950 -0.355217 -0.494546 0.809163 0.403097 0.207673 0.584684 0.290824 0.043885 0.133972 0.272437 0.229040 -0.638839 0.390461 -0.026722 -1.139770 0.691947 -0.952394 1.006098 -0.120372 0.800238 -0.221711 0.098344 -1.196342 1.099333 0.070759 0.613433 -0.398440 0.708623 0.440915 0.793968 0.633142 -0.279888 0.155670 -0.061504 0.221919 0.707213 0.621092 0.025148 
以 0.486468 0.361280 0.017788 -0.106443 -0.591054 0.476227 -0.279429 0.082759 -0.293756 -0.098958 -0.579812 -0.372531 0.077178 -0.517924 -0.407226 0.615969 0.305173 -0.525772 -0.218328 0.008117 0.386712 -0.644788 0.076130 0.328578 0.511494 0.516032 -0.627504 -0.053758 -0.267780 0.399372 0.735115 0.262504 0.175739 -0.349854 0.080362 -0.212917 0.511236 0.196895 -0.210209 0.153774 -0.310242 0.638235 -0.153933 0.113296 0.149627 0.085174 0.003486 0.206745 0.159043 -0.536501 
地 -0.889305 -0.752541 -0.910226 0.338978 -0.550790 0.546428 -0.474828 0.868107 -0.355168 0.018815 0.178213 -0.055128 -0.125263 -0.521251 -0.223700 0.147702 -0.829591 0.269271 0.019031 0.001001 -0.032215 -0.465680 0.212746 0.928642 -0.490496 -1.215562 -0.395312 -1.641772 -0.160312 0.962299 -0.010505 0.180317 -0.402004 0.808775 -0.933532 -0.486963 -0.772705 0.056685 -0.789037 0.275807 -1.395343 0.333102 0.012453 0.479134 0.612082 -0.931101 0.081045 0.823002 0.427436 0.355499 
公 -2.000291 -0.135525 -2.028209 -1.507267 -1.097808 -0.565490 -0.178713 0.718492 0.355474 0.130701 -0.467369 -0.210249 0.591401 -0.220070 -1.193820 -0.531186 1.107615 -0.069812 0.140576 1.386454 -0.813764 0.831583 0.222512 -0.255337 0.200315 -0.135618 0.492546 -0.925466 -1.456040 -0.375638 0.122650 -2.919242 -0.846851 0.429800 0.222201 -0.777508 -0.643394 -0.011506 -0.648588 0.693150 -1.451413 0.135267 -0.876302 0.721820 -0.729865 -0.445130 -1.509716 -1.198272 0.079918 -1.365914 
市 -2.561746 -0.210771 -0.875770 0.063545 -1.390717 -0.319342 -0.300943 1.036220 0.264685 0.779158 -0.435741 0.423009 -0.979980 -1.219268 0.869601 1.583939 1.510663 0.354491 0.603321 0.310765 -0.705490 -0.065233 -0.188607 0.911451 0.348042 -1.033550 0.326569 -1.001690 0.388941 -0.310393 0.272080 -0.749654 -1.158717 1.250177 0.563513 -0.797594 -1.818927 0.946429 -0.688101 -1.167936 -2.241555 -0.682851 0.064903 1.533220 -0.346862 -1.093551 -0.665188 0.012761 -0.253341 0.402971 
作 0.891792 -1.154519 0.831129 -0.349048 0.764822 -0.621713 0.764730 0.162524 0.090917 0.231741 0.011719 0.550933 0.420114 -0.635367 -0.251904 -0.614800 0.632810 -0.310625 1.113886 0.656806 -1.103403 -1.203138 -1.133243 1.797561 0.518911 0.293904 0.344104 0.594065 -0.018028 0.544216 -0.743059 -0.310976 1.097048 0.475494 -0.986313 -1.633277 -0.313764 0.128657 0.807415 -1.035233 -2.365721 -0.313619 -1.181239 0.251348 -1.134480 -0.308493 -0.704432 0.538288 0.699563 -0.104916 
后 -0.384732 0.923379 -0.213615 0.631449 0.278131 0.039292 0.554609 -0.607199 1.414816 0.256447 0.191402 0.484898 0.225876 0.288537 -0.176329 0.478143 -0.278746 0.656766 -0.468187 0.135817 0.047343 0.138441 0.093450 -0.840578 -0.360022 0.162599 -0.529183 1.217295 -0.872422 0.386462 0.292850 -0.351662 -0.654439 0.287459 -0.244105 0.324691 0.850912 -0.355542 1.045430 0.340325 0.509960 0.376103 0.073837 -0.438421 -0.799617 0.723713 0.339109 0.289869 -0.340719 0.536379 
工 -0.460392 -1.124464 0.203968 -0.820361 -0.363222 -1.320166 1.275062 -0.667504 1.252462 0.659386 -0.184068 0.261794 0.291687 -1.578477 -1.070575 0.052378 0.426005 -0.130083 1.454955 1.219982 -0.562067 -1.708202 -1.051069 1.833056 -0.308342 0.191450 0.480255 -0.182217 0.661900 0.194254 -0.703425 -0.145611 0.176603 0.158349 -1.291255 -1.701323 -1.153764 0.598044 0.045708 -0.418524 -1.978439 -0.728091 -1.582823 0.316878 -1.060191 -0.949432 0.429800 0.482813 0.376395 0.216979 
他 0.356318 0.654286 0.150326 -0.556612 0.278087 0.439629 0.067905 -2.129822 0.886968 -1.343282 -0.339411 0.399759 0.781848 0.280144 0.097933 -0.349261 0.005485 0.375334 0.386631 0.633591 0.425282 -0.269455 0.229720 0.014612 -0.059594 0.431754 -0.629436 1.255895 -1.363800 0.044613 0.647170 1.517827 0.211198 0.129211 -1.265467 1.662386 0.419960 0.189263 0.507790 0.867359 0.481995 0.099718 0.812789 0.304402 0.003929 1.153702 0.516348 0.887992 0.462224 -0.189486 
成 0.587470 -1.164823 0.429921 -0.258973 -0.716389 -0.084097 0.652031 1.064608 -0.483930 0.776823 -0.233310 -0.400750 -0.773065 -0.589212 -0.158509 -0.270268 -1.191287 0.298628 0.173350 -0.625742 -1.003238 0.076467 -0.449511 0.445133 -0.340531 -0.390391 -0.353711 1.382240 0.710248 0.957074 0.161344 -0.240982 -0.823020 -1.364498 -0.653661 -0.508976 0.007601 0.516086 0.229069 -0.661887 -0.663072 0.105010 -0.279387 0.823778 -0.353615 0.617177 0.189746 -0.564420 0.120136 -0.788305 
多 0.008975 -0.418864 -0.028980 -1.103598 -0.701458 0.365937 -0.057551 -0.049114 0.138187 -0.178452 -1.109541 -0.283429 -0.325402 0.082785 0.455838 0.651858 0.097124 -0.024525 0.301818 0.748502 -0.477706 -0.137901 -0.082654 -1.175648 -0.160593 0.691351 -1.548383 -0.102861 0.009350 0.593456 -0.592417 1.029676 -0.600789 -0.205129 -0.742127 0.435889 -0.272405 0.257508 -0.009494 0.563735 0.201462 0.633353 0.513510 0.514697 1.774391 0.352618 1.186807 -0.099045 0.135162 -0.550890 
新 0.507956 0.305867 -0.332300 0.716394 0.409105 0.762494 0.560583 0.367128 1.559848 0.264033 0.055317 0.107770 -1.561157 -0.189684 0.372787 0.161449 0.162546 0.740083 -0.163579 -1.909481 -1.657418 0.299468 0.193414 0.547120 0.397768 -1.398107 0.813358 0.592707 0.899207 0.414570 -1.743892 -1.323272 0.819269 0.620960 -0.516137 -0.746615 -0.038694 0.834868 -1.047663 0.383813 -1.421439 -0.338380 -0.663707 0.219092 0.576692 -0.667977 -1.072638 -0.121628 0.315072 0.068700 
方 0.269919 -0.557399 -0.362604 0.617621 -0.550626 -0.228613 -0.438675 -0.278884 0.067428 -0.149498 -0.025131 1.683803 1.030823 -0.729498 -1.537419 -0.153666 -0.763773 -0.238054 -1.267776 0.067497 -0.925505 0.287866 0.339218 0.186276 0.071805 0.145827 -1.486229 -0.920959 -0.892274 0.278255 0.427279 -0.155486 -0.949280 1.128309 -1.050088 -0.035854 -0.857566 -0.270272 -0.237480 0.113897 -0.825776 0.202167 -1.548199 0.370483 -0.645717 -1.187515 0.108098 -0.227757 -0.086496 -1.069581 
现 0.811962 -0.542115 -0.236615 0.219827 -0.049608 0.888358 -0.384881 0.090040 0.704335 0.582000 0.404565 0.328996 -0.630840 -0.787866 0.084298 0.847794 -0.284201 -0.160349 0.125576 0.645467 -0.330798 -0.014046 -0.785102 -1.026291 0.213123 0.261897 -0.535403 0.682233 -0.304374 0.986937 -0.100713 0.754855 -0.999278 0.642464 -0.759600 -0.477940 -0.887228 0.020823 -0.087266 0.447070 -0.241370 0.406036 0.052529 -0.727215 -0.206057 0.124310 -0.122573 0.402531 -0.144926 -0.230002 
部 -2.160609 -0.617554 0.994947 0.136478 0.043844 -0.293049 1.013789 0.606406 -1.266029 0.223296 -0.315679 1.044705 1.442940 -0.323637 -0.387062 -1.186607 1.351503 -0.363422 2.250319 0.330217 -0.182738 -0.940482 0.987630 1.257691 0.484833 0.516943 0.223319 -0.316677 0.773012 0.210178 -0.566230 -1.244840 -0.989097 1.487580 0.077027 -0.918915 -1.453751 -0.167871 0.689231 0.533649 -1.209098 0.551541 -1.999359 0.065356 -0.058021 -0.756413 -0.827623 -0.093335 0.375998 0.926141 
我 1.151325 0.666850 1.103761 -0.680277 0.419778 0.380899 1.046172 -2.291254 0.709012 -1.063748 -0.861022 0.634506 -0.193114 -0.229055 0.223049 0.245908 0.268438 -0.119292 1.219230 0.392530 0.237584 -0.207409 0.360749 -0.408846 0.282713 -0.183058 0.041811 0.988310 -1.290702 0.394974 0.266054 1.423232 1.530630 -0.042155 -1.900896 2.375035 -0.110953 1.157391 0.146828 0.695817 -0.736582 0.184383 1.480518 0.173301 0.246734 0.792488 -0.413944 1.252815 1.125224 -0.223744 
民 -0.684824 -1.278097 -0.621322 -0.545658 -1.173673 0.597468 0.900815 0.626338 1.522685 -0.011341 -0.145454 1.013988 1.444897 -0.344260 0.601701 0.864024 1.278558 -0.694141 -0.215327 0.464840 -0.604637 -0.978126 -1.581089 1.817682 0.096526 -1.645489 -0.490209 -0.742649 -0.010369 -0.605144 -1.140180 0.352192 -0.197022 1.897615 0.391245 0.065998 -1.530884 -0.077149 -0.039827 -0.808850 -1.082050 -1.286058 -0.266505 0.920128 0.623394 -0.095911 -0.534169 0.226603 -0.592227 -1.293629 
月 -1.981553 1.399377 -0.223769 0.082151 -0.341616 0.115950 0.405268 -0.160590 1.677344 -0.274578 -0.420966 -0.153796 -0.696985 -0.246664 -2.351366 1.125907 2.292614 0.298312 -1.319609 -0.516612 0.642704 0.407333 0.430588 -1.949721 -1.698014 -2.176394 0.287025 1.257255 1.176050 -1.278059 -2.070640 -1.229271 -1.387190 -0.689084 2.315402 0.695907 -0.363018 1.266976 2.754627 -0.309182 1.133474 -0.140054 -0.121408 0.237669 0.717837 -2.395015 -0.617960 0.198985 -0.392963 0.986084 
过 0.722384 0.358595 0.247175 -0.337822 0.110314 -0.112477 0.501038 -0.896780 0.266423 0.362705 -0.410320 0.475986 -0.558181 -0.450697 -0.184917 0.929407 -0.017402 -0.404572 -0.242215 0.410200 0.692804 -0.020739 -0.215125 -0.729837 -0.397127 1.307374 -0.672351 0.363024 0.023691 0.298588 0.707201 -0.352546 -0.953282 0.439764 -1.056054 0.789819 0.278813 0.338930 0.105115 0.240918 -0.006840 0.063828 0.137643 0.644921 -0.029846 -0.370848 1.151084 0.016639 -0.421811 -0.948224 
全 -0.507750 -1.119959 0.638672 -1.367140 -1.034701 0.326992 0.621021 0.407594 0.058593 0.074209 -0.156885 0.175638 -0.567491 -0.322415 -1.262405 1.289148 -0.171745 0.018304 0.987158 -0.262745 -1.235657 -0.635690 -0.291185 0.257592 0.896358 -1.043219 0.027279 0.664629 1.511350 1.136007 -0.109734 -0.813896 0.241380 0.732714 1.441286 -0.876900 -0.745575 1.456334 -0.696056 -0.258484 -1.825900 0.121670 -1.249533 -0.137848 -0.584697 -0.434815 -1.239712 -0.179218 -0.060633 -0.113028 
4 -1.821491 0.128624 0.696071 0.028430 -1.117945 0.409087 -0.266090 1.106421 0.674280 0.497853 -0.880003 -1.266988 -0.204753 0.009127 -2.135635 1.726000 1.434126 0.647667 -0.443718 -0.304981 0.603400 0.796295 -0.109082 -1.403339 -1.032395 -0.556707 0.091990 0.307947 2.255256 -0.638367 -1.684359 -0.256663 -0.894225 -2.002937 1.410149 0.106946 0.022014 1.033598 1.844763 0.021997 0.676260 -0.092786 -1.295707 0.434336 0.626399 -1.716317 -0.464756 -0.071073 -1.115720 -0.828466 
5 -2.037875 -0.200960 0.738360 0.616858 -1.648896 0.498918 -0.930746 1.176896 -0.099358 0.702819 -1.223577 -1.234705 0.495717 0.173377 -2.363529 1.791053 1.451497 0.984394 -0.114195 0.115884 0.375817 0.664501 -0.079497 -1.286311 -1.212037 0.189649 -0.258714 -0.465884 2.133464 -0.753204 -1.263402 0.111183 -1.100991 -2.313169 1.137972 -0.025436 0.245577 0.711220 1.687074 0.156844 0.873087 0.190908 -1.113682 0.885876 0.608907 -1.578821 -0.031632 -0.375939 -1.370831 -1.219763 
业 0.240097 -0.923040 -1.475772 -0.263714 -1.874054 -0.316308 0.795763 -1.182051 1.569451 1.393848 -0.078336 -2.707773 -0.831317 -1.132616 0.045282 -1.083862 -0.426167 0.514462 0.796353 1.745812 -1.050999 0.000519 -0.112397 1.898366 0.867249 0.640939 1.132186 -0.906314 0.934285 0.064000 -0.742317 0.279543 -0.011653 -0.824621 -1.515472 -3.455367 -1.109496 1.531741 -1.274832 -0.377711 -2.034838 -0.266100 -1.773090 2.000441 0.778216 -1.212127 -1.161479 -0.530038 1.554112 -0.353976 
能 2.321285 0.280144 0.230864 -0.851126 -0.592668 0.912417 1.301354 0.013315 -0.732213 -0.363552 -0.334046 -1.466355 0.056249 -0.647098 -1.016423 0.167451 -0.817732 -0.781744 0.942685 -0.155351 -0.121120 -0.593152 0.484672 -0.184176 0.592540 0.370231 -1.096984 -0.060152 -0.765023 0.750710 1.316358 0.887492 0.737133 -1.021271 -1.500270 0.020032 0.010827 -0.202478 -0.377919 -0.013387 -0.525121 0.589247 0.827494 1.567561 -0.283907 0.421451 1.260582 -0.621101 0.249281 -0.460415 
者 0.062599 -0.099105 -0.496393 -0.991528 1.641040 1.136222 0.114046 -0.326280 0.557352 -0.704337 0.981381 1.028739 0.532515 -1.499440 -0.232096 -0.049793 0.729249 2.068894 -0.637810 0.888106 1.153070 -0.261911 -1.398015 -0.730297 -0.430588 0.565189 -0.673964 0.276329 -0.329928 -2.234629 -0.590007 -1.280565 -0.250925 1.746713 0.443899 0.767281 -0.876235 0.821440 0.661580 0.169098 0.387727 0.662199 0.978490 0.482599 0.762754 0.094604 1.210998 -0.715470 -0.133023 -0.219154 
开 0.000283 1.038899 0.035290 0.210226 -0.567909 0.097656 0.724874 -1.447983 2.356989 0.863849 -0.687289 0.367621 -1.671061 -0.844078 -0.217129 0.372829 0.181802 0.843928 -1.452379 0.630887 -0.743162 0.117883 0.839829 -0.394162 0.443568 -1.553226 -0.047690 0.321234 0.252348 1.348488 -0.721931 -1.071504 -0.483112 1.127489 -0.222748 -1.090554 -0.473702 -0.313334 -0.288854 0.432494 0.021348 -0.271454 -1.164531 0.339659 -0.983956 -1.003323 -0.581520 0.368600 -0.232202 0.916932 
子 -0.677923 0.805246 0.897088 0.442288 -0.296292 0.131644 -0.507013 -0.952891 0.791235 -1.260396 0.085880 1.102734 -0.299619 0.977292 0.583650 -1.036813 -0.419068 0.799336 0.722291 0.903402 0.253702 0.898007 -1.860641 0.147179 -1.549754 -0.541284 -1.334502 0.526663 -0.538225 -0.309799 0.554124 2.269297 -0.179559 -1.109765 -1.225307 2.269156 1.561196 -0.763597 -0.125233 -0.249524 1.854610 0.984953 -0.774810 -1.155535 -0.681978 0.390844 0.067663 -0.207606 -0.861214 0.139191 
也 0.710851 0.560631 0.033875 -1.099388 -0.115568 0.505606 -0.241123 -0.633060 -0.029825 -0.345190 -0.511051 -0.156718 -0.168257 -0.180675 0.593061 0.067066 -0.412115 -0.126664 0.229398 -0.006389 0.149450 -0.244749 0.437364 -0.701404 0.391853 0.894078 -0.827296 0.111760 -0.796639 0.635553 0.294551 0.914590 0.131618 0.192543 -1.304997 0.683166 0.138642 0.045519 -0.053227 0.137670 0.006166 0.352126 1.006664 0.256055 0.511196 0.546364 0.243000 0.318184 0.447206 -0.124322 
车 -1.132491 1.193273 -1.121714 0.165758 -0.044849 -0.120876 0.090375 -0.446686 0.948184 1.676746 0.246268 -0.385437 -2.697564 -0.586849 -0.889195 1.965682 0.303844 2.211697 0.130305 0.834369 1.001000 -0.749969 2.627531 -0.723697 -1.694820 1.213568 -1.371327 -2.053997 -1.566823 0.124373 1.162243 -1.559698 -1.001512 0.310406 1.579457 -0.105069 2.057285 0.009486 -1.632209 2.351334 0.041934 -0.913893 -1.724499 -0.711267 -1.704845 1.070194 0.736219 -1.224324 -2.204431 -2.761239 
前 -0.709083 0.843151 -0.754651 -0.299453 0.681596 0.100940 -0.053302 0.253389 1.630559 0.230731 -0.766942 0.752989 -0.440213 -0.347558 -0.028912 0.910847 -0.240766 0.366047 0.745565 -0.444098 0.567113 0.043302 0.337141 -0.498106 -0.081633 0.285909 -0.164810 0.570934 0.212746 0.658822 0.219630 -0.110434 -0.956770 0.100736 0.474410 0.404730 0.269730 -0.444812 1.245003 0.157283 -0.474040 0.107977 0.010314 -0.422558 -0.020082 -0.356776 0.460798 0.310927 -0.118785 0.007325 
进 0.918861 -0.114829 0.220926 0.377259 -0.330421 -0.154030 0.719446 -0.942642 0.335058 1.689851 0.514810 0.628451 -0.330549 -1.037619 -0.822580 0.567322 -1.351995 -0.125903 0.157765 0.781613 -1.607914 -0.029792 0.282126 1.322422 -0.148162 0.238319 -0.159630 0.359438 1.160597 1.699197 -0.447362 -0.776506 0.007570 1.329849 0.475632 -2.120658 -0.834214 -0.267716 -0.122818 -0.254164 -1.887329 -1.143927 -0.825736 1.351683 -1.263046 -0.381382 -0.182801 0.787258 -0.519201 0.200882 
经 0.403939 0.525896 -2.251387 0.760907 -0.467597 -0.121540 -0.083857 -0.878662 1.086009 1.228698 0.493388 0.202022 0.155418 -0.335936 1.867252 0.502730 -0.516378 -0.565496 1.679720 0.607627 0.296493 -0.542455 -1.214147 0.701176 -0.140676 0.481153 -0.068238 1.038879 0.515347 1.998954 -0.644409 -1.304858 -1.750795 -0.728330 -0.279557 -1.663786 -1.064946 1.350236 0.727015 -0.082453 -0.397295 -0.383059 -0.095570 0.420121 -0.031588 0.397789 -0.178358 0.575394 0.798356 -1.178067 
于 -0.637630 0.688176 -0.758364 0.166352 -0.477881 -0.198794 -0.058475 0.276982 0.104612 -0.053348 0.159749 0.112308 0.841142 -0.225013 -0.260405 -0.316773 -0.153508 -0.406455 -0.329460 -1.091588 0.051462 -0.506608 -0.025028 -0.017096 0.364411 -0.353451 -0.290030 -0.268313 -0.324262 -0.010029 0.398084 -0.022259 -0.905155 -0.414243 0.300864 -0.563533 0.020196 0.205074 1.270254 -0.421362 -0.578570 0.738940 0.119040 0.152277 1.005695 -0.027676 0.123638 0.193496 0.350768 -0.011434 
就 0.804166 0.557820 0.580456 -0.282600 -0.487650 0.412096 0.681458 -1.179868 0.560446 -0.153427 -0.478986 0.432863 -0.470356 0.164833 -0.165089 0.414371 0.046833 0.010901 0.726315 0.986459 0.410952 -0.190188 0.359512 -0.605234 -0.275438 0.168880 -0.729992 0.397611 -0.918811 0.710809 0.065993 0.696639 0.237040 -0.733676 -1.279276 0.801816 0.823591 0.232759 -0.202106 0.637617 0.118996 0.551932 0.826610 0.018715 0.182531 0.441471 0.272337 0.629584 0.357997 0.533288 
： 0.951994 0.023724 0.253396 -0.003402 0.585925 -0.468394 -1.137634 -0.919022 -0.066045 0.030812 -0.253925 1.122614 -0.389148 0.154206 0.826020 0.813057 0.431711 -0.018683 0.908834 -0.148216 0.596880 0.193925 0.952646 -0.333331 0.082527 -0.335866 0.505843 -0.121361 -0.215699 -1.726653 -0.136068 0.384681 1.486964 0.024330 -0.579486 1.563400 0.243218 0.457903 0.690697 0.024014 0.060699 0.881062 0.297137 -0.325211 0.749751 -0.345132 -0.623057 -0.790969 -0.343742 1.018913 
下 -0.468276 0.699690 0.498670 0.705351 -0.335561 0.764473 0.012884 -0.505039 -0.101290 -0.122204 -0.237468 -0.841311 -0.275099 -0.047285 -0.559305 1.039055 1.033279 1.043387 -0.072538 0.433165 0.489975 -0.020735 0.433769 -0.909986 -1.315848 -0.299597 -0.551637 0.682961 -0.299113 0.119645 0.758523 0.380910 -0.590375 0.416167 -0.410566 -0.051380 0.573443 -0.653096 0.842801 0.321134 -0.698701 -0.120879 -0.012048 0.048300 -0.235828 0.312159 0.050540 1.766281 -0.195840 0.652048 
自 1.075916 0.794461 -0.435388 -1.435543 -0.466089 0.540942 0.123347 -0.950938 1.045925 -1.080911 0.459757 -0.175820 -0.171914 0.771077 -0.331738 -1.706562 -0.064510 0.443784 1.161701 -0.518493 0.000892 -0.392761 -0.145407 0.865642 0.036473 0.036215 -1.219972 0.834363 -1.019890 0.973483 -0.500871 1.135569 0.776308 0.332050 -0.755033 -0.346821 0.353310 -0.232166 0.941399 0.916926 0.484916 -0.348183 0.244559 0.940397 0.726259 0.692035 -0.436873 0.171972 1.429709 0.432039 
实 1.862898 -0.844522 0.404862 -0.042181 -0.344870 -1.591666 0.322725 -0.646809 -0.929606 1.170411 0.633671 0.928943 1.466392 -2.738586 -0.863844 0.341512 -0.852186 -2.195930 0.545665 -0.045433 -0.782458 -0.662305 0.793009 1.456291 0.129930 0.231879 -0.888455 0.574557 -0.251624 1.539248 -1.099578 0.172093 0.518010 0.402787 0.520643 -1.315659 -0.497479 0.444507 0.179747 -0.307996 -1.121972 -0.773837 -0.729085 -0.038384 0.453712 0.034326 -0.754942 -0.094858 0.997864 -0.303985 
用 0.966375 0.164831 -0.654132 -0.435984 -0.959230 1.192728 0.352541 0.826758 -0.977887 0.199579 1.043115 -0.079403 -0.453336 -0.837375 -1.770599 -0.893248 0.228771 0.256018 -0.549883 0.536614 0.036323 -1.002191 -0.218882 0.333501 0.074754 0.979761 -0.564283 -1.067094 0.424237 -1.091692 0.437904 -0.472056 1.008628 -0.221730 -1.129196 -0.909903 0.805428 -0.581109 -1.790956 0.334194 -0.979120 0.829824 -0.851022 1.643560 -1.211897 -0.123817 1.668601 -0.565731 0.317363 -0.806173 
动 1.363643 0.428488 0.841858 -0.241145 0.560527 0.474035 1.612664 -0.856946 0.227137 0.237361 0.376364 -1.161349 -1.459906 -0.666055 -0.300570 -0.146576 -0.649103 -0.438048 -1.738618 0.075923 -1.940228 -0.174980 -0.186348 0.880487 0.527750 0.407201 0.463621 -0.157677 0.137465 0.644936 -0.362530 -0.486973 -0.275730 1.358943 -0.436863 -1.522915 -0.315498 -0.354678 -1.239775 0.125043 -1.178589 -0.972676 -1.844081 0.640148 -0.109748 0.545180 -1.329492 0.895966 -0.410325 -0.608938 
小 -0.882451 -0.364477 0.547420 0.220847 -0.059047 -0.560677 -0.454178 -0.705182 0.827645 0.045317 -0.013120 -0.406990 -0.482643 0.007502 0.668588 -0.537994 0.322266 0.477057 0.809395 0.905548 0.789073 1.144331 -0.421109 -0.336895 -1.349842 0.409990 0.008467 -0.008547 -0.341191 -0.189957 -0.039821 0.908020 -0.223497 -0.063490 -1.093580 1.694003 0.915271 0.511647 -0.236731 -0.434781 0.841679 -0.196498 -0.479378 -0.471673 -0.037337 0.065492 0.772141 -0.695437 -0.620973 1.368526 
法 -0.123557 -0.069025 -0.108572 0.110061 -0.635382 0.253175 -0.047713 -0.913162 -0.662644 0.056728 0.559501 2.048404 1.365208 -0.368705 -0.145462 -0.263394 0.494551 -1.467132 -0.093611 -0.064055 0.580301 -0.384536 -0.748262 1.207711 -0.674079 0.505252 2.206863 -0.659977 -2.065602 0.912398 1.604466 -1.992911 0.691373 0.738394 1.470907 -1.224304 -0.852660 -0.414055 1.586002 0.036534 -1.012520 1.140899 -0.059071 1.284650 -1.007199 0.185173 -1.539454 -2.187227 1.379691 -2.313379 
高 0.299308 0.622792 0.067254 0.673775 -0.273488 1.214081 -0.552324 1.758160 -0.213072 1.386471 -1.363169 -1.302561 -0.297192 -0.746949 0.032340 2.173978 0.327413 -0.480732 0.367144 0.854549 -0.727182 0.215773 0.275089 0.426916 1.623932 0.022188 -0.175811 -1.033646 0.036325 -0.096690 0.566145 -0.483755 -0.978824 -0.477832 -0.491536 -1.026023 0.352014 0.871545 -0.622233 -1.189915 -0.280211 -0.513634 -0.136631 0.614518 0.568949 0.130829 1.133933 -0.904112 0.423866 0.006374 
分 -0.287102 -1.713704 0.357218 1.138678 -1.176741 0.250598 -0.546086 1.591201 -0.286627 -1.140902 -0.911228 0.086781 0.312235 -0.984567 -0.583312 0.801704 2.004809 -1.125597 1.324216 0.143530 -0.740427 -0.401442 0.183482 -1.008109 0.100870 0.017210 -0.186026 -0.539457 0.067932 -0.337575 0.676371 0.427018 -1.364218 -1.128954 -0.092513 -0.460561 0.532336 -1.326839 1.517958 0.025425 -0.982263 -0.123573 -1.128221 0.519116 -0.399934 0.039713 0.707764 0.058440 0.213560 0.128096 
说 0.331030 0.106395 0.051273 -0.539530 1.217782 -0.000002 -0.951794 -1.770587 0.425427 -0.873180 -0.732262 1.561278 0.053372 0.108320 0.548435 -0.172392 0.612417 0.054665 1.384619 0.231866 0.924755 0.153824 0.510966 -0.536656 -0.231435 -0.033886 0.079686 0.638878 -1.513103 -0.939679 0.448462 0.974995 0.427568 -0.062816 -1.502238 1.471068 0.219672 0.405908 0.317741 0.045250 0.370080 -0.061832 1.575842 0.102986 0.502682 0.993947 -0.173641 0.215134 0.218980 0.626177 
学 0.375360 -0.145979 1.716191 2.085888 0.779709 0.858866 -0.286425 -1.527833 1.406343 -0.039713 -1.753065 1.267606 -0.221050 -0.743629 1.832048 -0.530593 -0.114292 -2.259071 0.719621 1.454923 -1.365064 -0.038900 -0.595595 3.051209 -0.318353 -0.417838 -0.118183 1.367374 -0.372065 -1.602502 0.189479 -1.035155 -0.679335 -2.106049 -0.735833 -1.338882 0.367714 2.587066 -0.995257 -0.293697 -0.089683 0.498634 -1.043184 1.110119 1.592260 -0.176551 1.395655 -0.981996 1.936485 1.398871 
天 -1.924352 0.985251 -0.285953 0.618775 0.261869 0.324774 0.146338 0.255930 0.451141 0.415225 -0.364622 -0.730234 -1.494985 0.642475 -0.504246 0.542274 1.159570 -0.571138 -0.474556 -0.587065 0.655281 -0.044007 1.147878 -1.979313 -0.587540 -0.916600 -0.250620 1.286633 -1.230069 -0.553608 0.964584 -0.854017 0.198728 -0.356026 -0.262116 1.722993 1.003594 0.929995 1.043360 0.144318 -0.555494 0.393780 0.994776 -0.340517 0.586233 0.079694 0.683274 0.610679 0.209588 1.951070 
们 1.025337 0.306787 0.421346 -1.228408 0.473673 0.598988 0.743455 -2.255493 0.954091 -0.833650 -0.478039 -0.015087 0.546503 -0.097119 0.833545 -0.414246 0.155546 -0.013772 0.919709 0.507238 -0.006094 -0.278958 0.437005 0.093749 0.432087 0.092353 -0.855657 0.626327 -1.307705 0.526161 0.072217 1.471721 1.442136 -0.045633 -1.844012 1.955551 -0.125033 0.315733 -0.224353 0.864271 -0.657750 0.214350 1.028628 0.256201 0.525787 1.055994 0.142624 0.912519 0.794578 -0.196566 
将 -0.704487 0.581964 -0.733310 0.558570 0.023606 0.067308 0.559889 0.063613 0.876449 0.517932 0.089613 -0.175102 -0.315441 -0.542395 -0.433872 0.208756 -0.224289 0.904755 -0.342117 -0.497695 -0.054123 -0.406234 0.202216 -0.257116 0.346341 -0.010540 0.002815 0.746492 0.201797 0.692074 -0.013236 -0.365889 -0.484809 0.539413 0.623292 -0.250011 0.392298 -0.332749 0.601693 0.027626 -0.439151 0.023657 -0.911058 0.120639 -0.779285 -0.528582 -0.162229 0.085613 -0.108707 -0.282856 
等 -0.283500 -0.691216 -0.097940 -0.251406 -0.212686 -0.658469 0.146903 0.726519 -0.384097 0.685859 0.022832 -0.576436 -0.427242 -0.679813 -0.029739 -0.538934 0.039780 -0.689278 -0.189461 0.589025 -0.156690 -0.101225 -0.821269 1.212533 0.032607 0.376437 -0.042377 -0.872010 0.523868 -0.812006 -0.108249 -0.216202 0.229401 0.259462 0.412655 -1.460079 0.213270 -0.791789 -1.157353 -0.267030 -1.173786 0.436206 -0.759752 0.293854 -0.376152 -0.321177 0.021650 -0.539012 0.118999 -0.526920 
可 2.004077 0.977702 -0.266716 -0.316268 -1.078285 0.537297 0.231596 -0.075633 -0.994250 -0.201541 0.141405 -0.642776 -0.014098 -0.622560 -0.637819 0.153431 -0.307882 -0.511416 0.051912 0.161783 0.333967 -0.474723 0.252343 -0.950972 -0.154631 0.862535 -1.300526 -0.224530 -0.498811 -0.044557 0.815301 0.211815 0.313566 -0.422422 -0.795515 0.635609 0.384273 -0.555475 0.062182 0.326692 -0.252435 0.422922 0.515532 0.730939 0.120583 0.803397 1.035826 0.277773 -0.020119 -0.283561 
区 -2.987921 -1.556072 -0.477805 0.555168 -1.276443 -0.336553 0.077959 0.845208 0.000084 1.287264 -0.383370 -0.241466 0.030507 -0.629721 1.321193 0.659051 0.540187 -0.583612 1.372334 -0.396972 0.214682 0.671400 -0.427132 2.781169 -0.874897 -1.834085 0.011362 -1.770726 1.108981 0.389728 0.177506 -0.947105 -0.609699 0.872898 -0.357525 -0.848149 -1.365641 0.593893 -1.227492 -0.285241 -2.717597 -0.476765 -0.846952 0.756525 0.190087 -1.243699 -0.794690 -0.232270 -0.286929 1.001431 
事 -0.032022 -0.646351 -0.990994 -0.987027 -0.177541 -0.594126 -0.109339 -1.782838 -0.471816 0.162478 0.646773 1.480651 1.419027 -0.125167 0.803073 0.167539 -0.352205 0.382992 -0.311739 0.457131 -0.632246 0.697037 -0.140524 0.812854 -0.009222 0.665273 -0.523107 0.437202 -1.029411 -0.087573 -0.120427 -0.449924 -0.149510 0.647113 -0.296191 -0.601751 0.018317 -0.345788 1.754604 0.845388 -1.222134 0.241340 0.127324 -0.701831 0.280355 1.444232 -0.969595 -1.540772 0.178132 -0.753891 
关 -0.090955 -0.421185 -0.179440 -1.444132 1.224150 0.033940 0.567591 -0.405926 -0.827299 -1.348203 -0.394782 0.786822 2.872060 -1.842626 0.459511 -0.984409 0.066722 0.302832 -0.102567 0.634402 -0.655494 0.959140 0.087469 0.057955 1.226263 -0.129171 0.031822 -0.110044 -0.157652 -0.179283 -0.730432 -0.000185 -0.102239 1.260695 0.587160 -1.173318 -0.965366 0.065333 0.575922 -0.404883 -3.347798 1.551261 -1.710933 -0.751382 -0.976018 0.244895 -0.610903 0.236871 0.715140 -0.576754 
政 -1.267288 -2.231029 -1.274676 -1.399403 -1.275305 0.088358 1.511623 -1.717609 -0.966360 0.404677 -1.837233 2.718182 3.078713 0.290410 -1.292088 1.264235 1.962494 0.222488 1.075337 -1.132718 0.301286 -1.115333 -1.237673 2.284515 2.031453 0.565406 1.615031 -1.190205 1.322991 0.371443 -1.187924 -1.256119 0.951997 1.158736 1.175402 -1.585542 -1.645738 -0.339268 0.178294 -1.498861 -3.571702 -0.926307 -0.811545 1.534994 -1.103860 -0.063118 -0.373224 1.974427 0.853553 0.665178 
员 -0.656799 -2.223075 -0.119304 -1.141272 0.561783 -0.219084 0.544820 -0.095232 1.448524 -0.759711 -1.860423 0.083214 0.718515 -0.143568 -0.278187 -0.307514 0.897299 -0.399136 1.204870 2.025327 -0.387681 -0.946574 -0.253017 0.846220 0.708710 1.196848 0.809945 0.459473 -1.177907 -1.297782 0.370475 -0.729799 -0.296360 1.259867 0.618050 -0.978391 -1.405468 -0.394016 0.652559 0.196910 -0.848983 -0.254099 -1.949137 0.505392 -0.506780 -0.147820 0.266057 0.058965 -0.136908 0.255216 
长 -1.497103 -0.432572 -0.277511 0.089094 0.114033 -0.644772 0.817761 -0.998266 -0.448967 -0.311078 -2.321610 -0.733419 0.170150 -0.822956 0.628025 0.285725 1.131190 -0.277443 1.513499 -0.456567 0.213588 0.700328 -0.013202 -0.222940 0.565246 -0.010475 0.346032 -0.441326 0.398632 0.120013 0.016761 -1.309332 -1.846847 -0.511982 0.355918 -0.969097 -0.314471 1.158305 -0.585016 -1.207406 0.324143 -0.787564 0.081183 0.107013 -0.456410 0.235491 0.034984 -1.552257 -0.900953 0.587373 
记 0.608543 0.215594 -0.219170 -0.369837 1.896817 0.070224 -0.332874 -2.299103 0.474947 0.022348 0.578102 0.665636 0.098692 -1.860030 0.318095 0.123077 2.753552 2.298642 0.611492 0.918516 1.696159 -0.819330 -0.934113 -0.796251 -0.951804 0.491744 -0.106076 1.826607 -0.284650 -3.350881 -1.847260 -1.595462 -1.174940 2.247257 0.711318 0.143475 -1.761433 0.855555 0.075494 0.481829 -0.300707 -0.707673 1.697037 0.297384 0.461090 -0.272176 1.438793 0.160074 0.918575 0.875002 
报 0.009517 -0.249390 -1.531561 0.683499 2.974037 -0.453617 0.260697 0.803827 0.802529 0.188148 1.148769 2.742558 0.525123 -0.450205 -0.366091 0.420958 1.342514 0.710608 0.748091 0.337718 -0.084607 0.578982 -0.744825 -0.800528 -1.149971 0.089455 -0.038272 0.696414 0.263468 -2.306812 -1.796314 -2.781410 -0.305647 1.567869 1.467804 1.872843 -2.792426 -0.272292 1.295534 0.180066 -0.409134 0.767776 -0.786459 0.852189 1.454858 -0.871517 -0.542887 0.540590 1.407607 -0.965112 
机 0.867550 -0.116068 -0.276388 0.464446 -0.007644 0.605556 1.423434 1.141804 -0.125133 -0.089364 1.082939 -0.980006 -0.095497 0.242355 -1.824927 0.380653 -0.919653 1.069941 0.285846 1.392199 -0.978095 0.045900 0.204837 0.610564 0.265639 0.527771 0.274661 0.095727 -1.068112 -0.382114 0.273917 -0.390358 -1.400098 0.511510 0.692327 -0.287568 0.770281 0.032020 -0.249215 0.833452 -2.394472 -0.056254 -1.554958 0.743767 -3.277158 0.167617 0.580787 -1.105821 0.461389 -1.045382 
6 -1.736273 0.066894 0.712396 -0.030701 -1.258978 0.234889 -0.630538 1.186941 0.208885 0.385504 -0.888015 -1.049387 -0.071055 0.095072 -2.162162 1.661193 1.580281 0.922057 -0.454635 0.235721 0.814912 1.005154 0.034003 -1.128290 -1.550632 -0.621027 -0.176485 0.119767 2.164593 -1.193010 -1.786394 -0.314787 -1.139204 -2.013156 1.113888 -0.048755 0.197566 1.097806 1.857174 0.000360 0.706267 -0.256967 -0.825415 1.058419 0.762654 -1.818285 -0.249369 -0.471901 -1.459841 -0.994952 
还 0.350087 0.487818 -0.414318 -0.479309 -0.422127 0.046713 0.125750 -0.671341 0.439258 -0.464548 -0.465347 0.400499 0.088328 -0.074958 -0.195766 -0.450511 -0.115575 0.168353 0.440615 0.409756 0.708008 0.018864 0.593671 -0.383991 0.140953 0.450650 -0.816376 -0.192137 -0.706395 0.553457 0.790222 0.582932 0.277584 -0.204729 -1.359933 0.903046 0.582812 -0.026310 0.037651 0.460162 -0.085658 0.831828 0.745539 0.065234 0.056035 0.308093 0.522902 0.257036 0.243070 -0.407492 
建 -0.307838 -2.733054 0.120086 -0.814365 -0.932035 -0.558245 0.348971 1.470826 1.026950 0.765270 -0.595000 1.111188 -0.008046 -2.282243 -0.807751 -0.206182 -0.941130 0.747566 -0.358000 0.053213 -1.715783 -0.421132 0.357793 1.932354 -0.950928 -3.061283 2.038221 -1.897190 0.785663 1.094088 -0.782073 -1.995994 0.741073 -0.176629 -1.435075 -1.524994 -1.106289 1.391059 -0.887113 -1.103629 -2.873055 -0.190370 -0.982920 1.209455 -1.618955 -0.041316 -0.597808 -1.562953 -1.490431 -0.251530 
理 0.130830 -0.077188 0.067958 -1.253909 -0.603819 -0.643178 0.555369 -0.587810 0.401612 0.617916 0.285709 1.762929 0.519396 -0.031675 -0.531356 -1.164082 0.390016 -1.213827 1.590631 0.959797 -0.359556 -1.429707 -0.879100 0.542678 -0.431521 0.388369 1.205042 -0.675245 0.456544 0.003501 1.001588 -1.371847 -0.358791 1.008578 -0.043987 -2.665519 -0.313141 -0.468425 -0.001893 -0.920174 -2.546959 1.155743 0.063061 1.750802 -0.186778 0.189810 -0.582313 -1.732299 0.722550 -0.823017 
主 0.567298 -1.152972 0.054578 -0.702229 0.364731 0.348975 0.385727 -0.874126 0.513608 -1.060050 -1.868204 0.686169 0.116568 0.678859 1.056124 -1.456352 0.920565 0.715537 0.662218 -0.151434 -0.698815 -0.779362 0.778836 1.002221 0.798606 -0.345613 0.654524 -0.383433 -0.744960 -0.504081 -0.677894 0.210591 -0.012537 0.756851 1.271063 -1.725983 0.038633 0.989406 -0.705231 -1.588382 -0.289977 0.418526 -1.020197 0.705110 -1.403404 0.054771 -0.982651 -0.411304 -0.011722 0.013900 
9 -2.345270 0.278648 0.729858 0.019570 -1.210306 0.429030 -0.703391 0.566257 0.210792 0.201214 -1.214268 -1.098819 0.048366 0.297225 -1.847939 1.382750 1.737434 0.802200 -0.886953 -0.515908 0.462752 1.129896 0.178969 -0.995456 -1.730229 -0.831254 0.511201 0.436468 2.291763 -1.100386 -2.310822 -0.039473 -1.369395 -2.334984 1.705216 -0.516267 0.080261 1.591292 2.285342 -0.366185 1.450978 0.034062 -0.728295 0.834380 0.821994 -1.773414 -0.582393 -0.767442 -0.940374 -0.409413 
体 2.157466 0.128134 -0.749588 -0.123194 0.801280 0.776052 0.601280 0.049226 -0.815546 -0.210275 -0.436494 0.063184 -0.076518 0.073359 -1.139926 -0.802560 -1.194653 -1.374393 0.612752 0.481368 -2.492330 -0.144572 -0.281720 0.339402 -0.265433 -0.312895 -0.579313 -1.451918 1.095520 0.253798 -1.388286 -0.669956 -0.689731 0.336679 -0.468269 -0.804632 -2.027943 0.277666 0.091649 -0.448767 -1.064272 0.140095 -1.541153 -0.590132 -0.106376 0.731181 -0.061682 -0.116456 1.340589 -0.251447 
定 -0.052443 0.338452 -0.395098 -0.695151 -0.871790 -0.821527 -0.853565 -1.496095 -1.742593 0.617918 0.511848 1.945743 1.320622 -2.342483 -1.251210 0.287977 0.049826 -0.545257 0.425063 -1.539964 -0.397476 -2.157062 0.141829 -0.238905 0.279182 0.501171 0.449987 -0.183326 -1.385764 1.846183 1.113860 -0.035034 1.503677 -0.373672 1.242757 0.404064 0.166010 0.857697 0.073761 -1.837130 -0.911784 0.655492 -0.873716 0.672287 -1.398677 -0.543566 -0.991670 -0.440261 1.338550 -1.486747 
都 0.238382 0.069481 0.318539 -0.709502 -0.521337 0.005852 0.411763 -0.267871 0.250134 -0.683369 -0.779615 0.215093 -0.697215 0.243298 0.454268 -0.252833 0.336402 -0.095245 0.853952 0.663602 0.698878 -0.523777 0.219985 -0.497398 -0.009104 0.386044 -0.738150 0.008828 -0.864257 0.305551 0.245365 0.754690 -0.061294 -0.118283 -1.125443 1.272234 0.692084 0.001408 -0.300833 0.310539 -0.402687 0.447525 1.075899 -0.335547 0.388939 0.503131 0.629530 0.572935 0.772837 0.089878 
面 0.198271 -1.312167 0.584362 0.359924 -0.681545 0.639117 -0.022937 0.424595 -0.122132 -0.322056 0.184167 0.218272 0.567572 -0.691412 -0.380429 -0.435452 -0.508164 -0.151015 1.205454 0.537501 -0.389795 -0.433828 0.292532 -0.030109 -0.102286 -0.844089 -0.514687 -0.443894 0.826637 1.819992 0.088339 -0.120139 -0.743779 0.845566 -1.230703 -0.151615 0.062199 -0.352214 -0.534241 0.496348 -0.294404 0.393242 -0.144774 -0.348206 -0.658078 -0.434156 0.142621 0.372301 0.701562 -0.255784 
安 -2.054644 0.426397 -0.722723 -1.710229 -0.140153 0.534596 0.703768 0.356233 -0.095002 -0.675290 0.600594 0.288447 -0.393496 -1.434757 -1.038722 1.090685 1.708715 -0.579430 1.951256 0.049828 -0.618409 -2.405713 -0.415215 0.587706 0.655786 -1.311548 0.652713 -0.681281 0.250300 -0.476465 0.049407 -1.066152 -0.484318 1.108888 1.453280 -0.205316 -0.572733 0.187772 0.001260 0.374874 -2.004715 -1.191286 -0.561845 -0.860441 -1.106886 0.117551 -0.305559 -2.146863 -0.863468 -0.317794 
8 -2.108353 0.010579 0.808719 -0.032318 -1.457811 0.466325 -0.851081 0.963667 0.063019 0.444693 -1.155421 -1.058344 0.099816 0.116207 -2.293320 1.501619 1.669700 0.865989 -0.371134 0.357948 0.483760 1.026880 0.062680 -1.092959 -1.702687 -0.251472 0.015860 0.131456 2.308375 -1.260800 -1.977814 -0.276066 -0.928745 -2.480181 1.269374 -0.154905 0.336155 1.441443 1.626635 -0.011552 0.987746 0.116761 -0.794637 0.894652 0.767747 -1.682821 -0.055465 -0.698166 -1.184027 -0.684391 
网 1.810436 0.650327 -0.393427 -1.418900 1.005373 -0.237309 -0.175722 1.506388 1.319945 0.201407 0.882525 0.506354 -2.599254 -0.303221 0.281808 -0.800800 1.307421 -0.123607 -1.909635 1.031610 0.560355 1.361783 1.914970 -1.083290 1.232099 -1.367320 -1.088950 -0.140714 -0.417748 -3.163731 -1.893391 -0.062042 0.060750 3.000322 0.172078 0.503253 -0.740534 -0.585258 0.875900 1.163658 0.274878 -0.632409 -0.986125 1.396125 1.889985 -2.800911 -0.235854 1.244029 -1.112190 -1.729468 
同 0.238209 -0.729834 0.448934 -0.867131 0.132579 0.083852 -0.218190 -0.321060 0.044344 -0.274338 -1.889095 -0.441579 0.431470 -0.191862 -0.053894 -0.440985 -0.129475 0.256973 0.071200 0.116638 -0.887641 -0.561194 -0.453223 0.115425 -0.366008 0.926034 -1.033255 -0.433866 0.472205 0.223337 -0.376565 0.701493 -0.587972 0.293529 -0.275903 0.922258 -0.077823 0.395245 0.623340 -0.954478 -0.777919 -0.497495 -0.473902 0.469386 -0.101588 0.226712 0.372919 -0.008659 0.287849 -1.073197 
力 2.175309 -0.299981 -0.130848 -0.366049 0.720928 1.671239 2.539517 1.046696 -0.715208 -0.672620 1.209445 -2.221071 0.607882 -0.435062 -1.356593 0.619160 0.042608 -0.785037 0.292457 -1.296428 -1.225290 -0.694885 0.130485 2.096104 1.913265 -0.516626 -0.164092 -0.817252 -0.641506 1.981618 -0.293357 0.442833 0.307598 0.060517 -1.635798 -2.142460 -1.240580 0.339576 -0.173625 -1.400983 -0.448136 -1.609488 -0.394136 1.525766 -0.662961 0.375874 -0.078253 0.023347 -0.027282 -0.255285 
表 -0.571090 -2.194513 -0.890843 -0.918783 1.695461 0.651289 -2.274663 -0.634858 0.272420 -1.773786 -1.580296 0.900276 -0.156158 -0.974013 1.151566 -0.650290 0.307316 -0.035303 0.191556 -0.411950 -0.688514 -0.794791 0.512215 -1.102631 1.784071 0.352944 0.579176 1.794888 -0.226704 -0.755160 0.468319 -0.260229 0.180912 1.378610 -0.673682 0.228052 -1.169731 0.553572 1.174841 -0.177724 -0.696491 -0.681743 -0.005220 0.533527 -0.803136 0.751097 -0.342161 0.409341 0.763834 -0.256235 
其 0.010643 -0.266330 -0.476804 -0.159838 -0.605889 0.807774 -0.771481 -0.149844 -0.627045 -0.518390 -0.030667 -0.111724 0.869803 0.254226 0.251208 -0.803009 0.074618 -0.282502 -0.284369 0.410970 0.130499 0.089360 -0.400864 0.585504 0.472014 0.860509 -0.473722 -0.140702 -0.068078 -0.053762 0.282844 0.547368 -0.488858 -0.383155 0.264772 -0.710657 0.653714 0.390554 0.730684 0.248132 -0.275096 0.772519 -0.474908 -0.176048 0.532512 0.612767 0.682149 -0.171273 0.256244 -0.942142 
名 -0.639961 -0.868642 0.118720 -0.404477 -0.681063 0.016854 -1.904518 0.362531 0.119879 -0.138370 -0.308924 0.030021 0.050358 0.488171 0.295528 -0.524518 0.098931 0.729765 0.441753 0.847849 -0.152160 0.050154 1.092606 1.712392 -0.619391 0.260806 -0.721661 1.960248 -0.272565 -2.368670 0.229817 0.317484 -0.537125 -0.854760 1.014261 1.001867 0.542247 -0.223823 0.679269 0.414237 0.408127 -0.440221 -1.695961 -0.995353 1.345384 -0.023123 -0.281338 -0.476689 0.372303 -0.449716 
加 0.021169 0.167918 0.086288 0.585254 0.460647 0.872191 0.657417 0.696082 0.640149 -0.728586 0.280047 -1.544003 -0.110218 -0.725082 -0.344440 0.671690 -0.734387 0.040656 0.731868 -0.129724 -1.905621 -1.424470 0.670738 0.746057 1.192378 0.838799 -0.104823 -0.445078 2.795310 1.557043 -0.730903 0.178006 0.219643 0.553275 -0.612698 -0.243495 -0.034649 0.906518 -0.901311 -1.023573 -1.293794 -0.510232 0.012116 1.228791 -1.294104 -0.615262 -0.690216 -0.107075 -0.325661 -0.155196 
被 -0.662152 0.450979 -0.996329 -0.436313 -0.124538 0.181715 -0.246801 -0.835620 0.233745 0.012584 1.899198 0.681116 0.320159 0.610068 -0.057564 0.430812 -0.216343 0.763460 0.022697 0.999833 1.003621 0.946408 0.152668 0.172404 -0.289627 0.286444 -0.191651 0.340705 -1.163344 -0.736955 0.579839 0.516784 -0.364345 0.742745 0.894899 0.113766 -0.098127 -1.632205 1.250861 0.817939 2.203965 0.132113 -0.697899 -1.595932 -0.048197 0.478082 0.585725 -0.135430 0.391927 -0.512810 
与 0.376032 -0.728704 -0.492084 -0.543308 0.313564 0.350097 -0.305139 -0.237860 0.913856 -0.946057 -0.471197 -0.717329 0.320099 0.351740 0.537121 -1.218502 -0.668168 -0.098592 -0.383690 -0.829744 -0.133270 -0.242022 -0.471747 0.675709 0.484004 -0.031398 -0.153728 0.164568 0.361704 0.061019 -0.239555 0.752090 -1.009992 0.197149 0.252007 0.122682 -0.333293 -0.238041 0.354947 -0.727895 -0.997913 -0.188161 -0.552227 0.448712 -0.519751 0.090328 -0.547513 -0.629790 0.004042 -0.343140 
场 -0.762444 -0.547331 -0.813990 -0.472471 -0.273065 0.026541 0.664891 1.533824 1.590753 0.803300 0.087474 -1.021111 -1.433169 -0.430308 0.919004 0.593616 -0.559726 0.582757 -0.288016 0.461859 -0.334680 0.448272 0.433809 -0.157784 0.439314 0.619630 -0.576459 -0.830767 -0.634615 0.878748 0.157425 -0.344887 -0.988142 0.510979 0.517314 -0.294130 -0.558921 -0.585020 -0.361182 -0.200794 -0.905247 0.159350 -0.041596 -0.007565 -1.208691 -0.325907 -0.369852 0.746587 0.351606 0.107656 
通 0.247784 0.779205 -1.059969 -0.871827 0.818186 -1.034116 -0.249214 -0.245373 -0.272513 0.856967 0.256635 -0.287355 0.255482 -1.309092 0.064539 0.720773 1.598206 -1.396329 0.192179 0.547459 0.872317 -0.138006 0.772484 -0.726417 0.835994 -0.333992 -0.718889 -0.146708 0.683873 -1.222995 0.217275 -1.983847 -0.870949 1.652430 0.581947 0.569423 -0.022019 -0.409741 -1.357442 0.575554 -2.649437 -0.475413 -1.154170 1.228953 -1.184693 -0.166330 -0.717384 -1.220909 -0.047846 -1.920225 
重 -0.026222 -0.584429 1.437847 -0.605636 0.856032 0.890514 0.507082 0.178543 -1.371076 0.457095 -0.218946 0.106555 0.283608 -1.051234 0.870757 1.413004 -0.168972 0.331229 0.431984 -0.261419 -1.888872 -1.174451 -0.186002 0.653798 0.394653 -0.080882 0.510142 -1.256278 0.199969 1.111773 -0.450980 0.402719 0.342511 0.261960 0.444280 -2.054797 -0.022235 0.618768 0.405634 -1.322257 -0.901681 0.738554 -0.366747 -1.005012 -0.337430 0.824362 -0.286803 -0.253244 0.798529 -0.601313 
最 0.518558 0.673440 0.283325 -0.024825 -0.564127 0.443250 -0.265272 0.768573 -0.262157 0.526687 -0.172547 -0.825116 -0.827009 -0.656743 -0.126883 0.695759 -0.818617 -0.528931 -0.243358 -1.046931 -0.756405 0.227978 0.064887 -0.259494 1.376716 0.370843 -0.836864 0.715687 -0.095730 0.338568 0.335984 0.357960 -0.259985 -1.077316 0.821628 0.409493 0.307154 0.479889 0.624925 -0.384806 0.745251 0.234176 1.020034 -0.232461 0.957995 -0.207692 0.438090 0.785451 1.330723 0.234438 
女 -0.361539 1.097770 0.939079 -0.182068 -0.771198 0.318011 -1.302589 -0.513066 1.733910 -1.575918 -0.169248 0.563502 0.191207 0.827462 1.533705 -1.723872 -0.625775 -0.480291 0.914597 -0.150934 -0.417207 0.392814 -0.578945 0.575940 -1.018994 0.400592 -0.603691 0.663226 -0.418385 -0.836667 0.328141 2.545833 -0.052558 -0.371734 -1.019830 2.634443 0.927177 0.101533 1.016101 -0.665379 2.606366 0.364442 -1.313278 -1.710491 1.275777 0.736169 -0.354195 -1.031434 -1.051513 0.827833 
当 -0.316935 0.247848 -0.694534 -0.669448 0.393667 0.114583 -0.236010 -0.428356 0.921709 -0.807218 -0.357547 0.000299 0.443156 -0.202186 0.093078 0.141199 0.354955 -0.095408 0.492952 -0.249412 0.248906 -0.354026 0.320116 -0.503464 -0.319143 0.451080 -0.354843 0.089628 -1.079912 0.131535 0.409352 0.168867 -0.175413 0.174033 -0.594933 0.614330 -0.414785 -0.233562 1.310238 0.637608 -0.168848 0.689730 0.177175 -0.420354 -0.176390 0.406171 -0.013729 0.187469 0.293467 0.728731 
次 -0.289116 -0.823340 0.113315 -0.574448 -0.327129 -0.135056 0.023743 -0.516433 0.756990 0.086547 -1.110770 0.085074 -0.896721 -0.267627 0.136746 1.459334 0.222607 0.702956 -1.215503 -0.307302 0.081086 -1.113979 1.015545 -0.632660 1.095502 0.620630 0.058514 1.605403 0.692849 0.150769 -0.212405 -0.317774 -1.118923 -0.261541 1.305665 1.286203 0.611641 0.619967 1.654083 0.143622 0.378370 -0.020225 -0.902165 -0.389145 -1.370604 -0.781191 0.970615 1.247231 0.693306 0.008556 
得 0.622391 -0.403047 0.779835 -0.899839 -1.588455 1.083477 0.930930 0.391775 0.310454 -0.288715 -0.033867 0.508871 -0.491515 -1.065561 -0.593400 -0.463173 -0.655667 0.022900 0.750396 0.050604 -0.026875 0.455924 -0.032416 -0.760411 0.976091 1.365032 -1.415511 0.623628 -1.707110 0.477749 1.109887 0.822220 1.308326 -1.165923 -1.246719 0.894428 -0.638731 -0.099920 -0.346631 -0.290773 0.611852 -0.206713 1.422555 0.501464 0.193945 1.864472 -0.513672 0.481820 1.345212 -0.182295 
本 1.608603 -0.784378 -1.580988 0.459398 0.102665 0.058577 -0.037325 0.329652 0.262419 0.311090 0.027404 0.481936 0.669979 0.208962 -1.061399 0.244733 -0.490677 0.283627 -0.047099 -0.840989 0.152157 -0.680884 0.141976 0.210817 0.119417 -0.721339 -0.023975 0.071635 0.363265 0.239766 -0.773076 -0.319031 0.244253 0.154789 0.902489 0.110056 0.032237 1.324702 0.618134 -0.268467 -0.618925 1.303359 -0.893079 0.111373 1.058300 -0.035542 0.423701 -0.017054 1.390893 0.350278 
7 -2.138937 0.136016 0.858314 0.005195 -1.461227 0.347656 -0.677601 0.944614 -0.133676 0.441895 -1.212977 -1.218452 0.187866 0.305650 -2.046454 1.573413 1.689930 0.609960 0.102079 -0.037182 0.627557 0.961360 -0.170154 -1.223452 -1.780494 -0.492490 0.350841 0.231124 2.494858 -1.293310 -1.763006 -0.021906 -1.370440 -2.086584 1.422992 -0.246687 -0.292459 1.178066 1.898592 -0.387014 0.519578 -0.022078 -1.051976 0.535731 0.793291 -1.493105 -0.422905 -0.706881 -1.128316 -0.594110 
道 -0.150024 0.943233 -0.722296 0.211629 1.574247 0.073611 0.596364 0.019535 -0.252925 1.871598 -0.025799 1.852613 -0.317234 0.996779 0.121087 -0.410163 -0.140060 -0.398323 0.590030 -0.689837 0.501254 0.832476 1.728696 -0.063229 -1.367507 -1.128232 -0.724170 -0.500183 0.831877 -0.589051 -0.676651 -1.778595 0.249392 1.383998 -0.117222 1.402717 -0.522942 0.147217 -0.589915 0.747819 -0.766092 0.385398 0.494577 0.058377 1.115152 1.349080 -0.701105 -0.694586 -0.075026 -1.184168 
好 1.382475 0.067120 1.096512 -1.273560 -0.325943 -0.265345 0.679273 -1.191953 0.904148 0.105731 0.153659 0.405149 -0.872450 -0.169480 -0.094807 -0.295539 -0.319772 -0.902341 1.048880 0.390648 -0.675995 -0.995196 -0.060597 -0.296631 0.434094 0.339320 -1.144575 -0.298146 -0.880766 1.172066 -0.044412 1.241481 1.936734 0.036949 -1.843258 0.634242 0.150529 0.069770 -0.526617 -0.328023 -0.927006 -0.476360 1.334580 0.298808 0.462149 1.137324 -0.528933 0.080948 0.161262 0.143304 
元 -2.615728 -2.163124 -1.490940 0.606061 -2.615435 -0.377879 0.327630 1.634838 0.718983 1.951646 -0.987724 -1.344381 1.398525 0.252362 -3.579174 1.149377 2.414937 1.150766 -0.743506 0.720713 0.581217 1.095630 -0.301481 -1.487964 0.332827 1.506806 -0.580161 0.141224 2.409954 -0.604821 -0.671987 1.084804 0.372611 -3.356313 0.442108 0.144084 1.807245 1.425804 0.302637 -1.586503 2.753920 1.492887 0.330911 1.851826 1.682080 -1.246884 0.096819 -0.356398 -0.961762 -2.857910 
目 -0.866698 -0.565586 0.787471 -2.132345 0.161839 -0.984362 -0.770426 0.999154 0.728459 1.617479 1.235011 0.924612 -0.848804 -2.759804 0.782683 0.397786 -1.656950 0.921853 0.792271 -1.547230 -0.217821 -0.052781 0.171059 -0.326395 0.926373 0.841894 0.445567 0.688353 1.754434 1.427901 0.137275 -0.959488 0.588769 -0.846473 0.187866 -0.536134 0.280202 0.717337 0.683531 0.046551 -0.741285 1.428804 -1.596253 0.400810 0.298379 -0.729684 0.534944 -0.928791 0.617281 0.333162 
心 -0.008118 0.074207 0.770743 -0.960374 0.744764 0.325883 0.940634 -1.268152 -0.026526 -1.071093 0.653825 -0.629848 0.613327 0.049796 0.682245 -0.419506 -0.119036 -1.718101 0.963356 -0.214068 -0.435024 -0.332845 -0.248363 0.828632 1.653185 -0.786783 -0.441059 -0.086888 -0.144038 -0.061147 0.296457 0.564089 0.598441 -0.203800 -1.216545 -0.035740 -0.463406 0.203828 -0.681838 0.305443 -0.263842 -0.190464 0.649821 0.175270 -0.174691 0.561029 -0.619492 0.613802 -0.208242 0.502122 
化 1.944761 -0.576138 0.075595 0.298152 -0.925217 0.811123 -0.148152 0.133353 -0.717115 1.545505 0.550822 -0.669172 -0.378692 -0.909496 -0.109765 -0.921978 -0.955605 -1.866811 0.202620 -0.896349 -2.191983 -0.570663 -0.219989 1.658469 0.188378 -1.245859 0.252540 0.369592 2.100651 0.240572 -1.049747 -0.354923 0.303725 0.605804 -1.512737 -2.941863 -0.748729 0.679873 -2.567121 -1.315657 -1.843974 -0.466647 0.155607 0.271618 -0.349758 -0.914821 -0.381697 -0.369674 -0.455976 0.219310 
而 0.560135 0.187986 -0.936057 -0.613445 0.008214 1.218802 -0.256096 -0.134406 -0.556564 -0.018989 0.141776 -0.753393 0.342433 0.318681 0.668236 -0.123588 -0.760471 -0.564480 -0.242903 -0.795536 0.556628 -0.369417 0.434669 -0.597347 0.731536 0.909739 -0.711606 -0.123356 -0.668394 0.932275 0.250062 0.460866 -0.749837 -0.836186 -1.062016 -0.018324 1.120323 -0.507947 -0.067841 -0.101073 0.591564 0.457470 0.698069 -0.479819 0.282729 1.078303 0.356039 0.226494 0.865136 -0.081851 
务 -0.420473 -0.808186 0.062856 -2.075180 -0.637693 0.529655 1.851225 -0.251422 1.184599 -0.419521 -1.156891 -0.729295 1.227674 -1.137661 -1.586831 -1.792583 0.615254 -1.110347 1.320337 2.306317 -0.709679 -1.110130 -0.043094 1.254352 -0.110409 0.460725 0.022566 -1.072809 1.234300 -1.280029 -0.990426 -2.014833 0.424573 1.350101 -0.581629 -2.832325 -0.757748 1.218538 -0.886035 -0.144602 -1.513797 -0.568954 -1.946707 2.408555 -1.291497 -1.093714 -0.441479 -1.125644 0.181687 -0.955954 
》 1.275360 -0.396278 0.282232 0.523991 2.455673 -1.430798 0.371539 0.939913 0.046463 0.418151 0.688014 1.856722 -0.964777 0.136966 0.042409 -0.478869 0.686034 -0.502041 -0.916011 -2.265998 0.345440 0.305400 -0.802820 -0.199409 -0.812390 0.101582 2.589256 1.157128 -0.006401 -0.478524 -1.522611 -1.766727 1.312942 0.218630 1.411240 2.324624 0.040927 -0.598582 0.340328 -0.995011 -0.437914 1.139721 -0.590032 -2.277529 0.780569 -0.013867 -1.481934 0.248272 1.884347 -1.487654 
《 0.559309 0.201230 0.062982 -0.083754 2.553571 -1.856230 0.388662 1.505533 0.078583 0.735449 0.479128 1.662573 -1.119994 0.894869 0.396949 -0.642081 1.231685 -0.062041 0.159771 -2.645061 0.908031 0.062956 -1.147408 0.097420 -0.329321 -0.683604 2.565614 1.376781 0.122220 -0.500736 -1.999372 -1.789603 1.135874 -0.002884 1.780676 2.120735 0.233467 -0.376245 0.283417 -0.906262 -0.496934 1.101003 -0.654720 -1.917249 1.031427 -0.011999 -1.566631 0.508963 2.099562 -1.588625 
度 0.970269 -0.092625 0.971693 0.286820 0.225570 0.706410 -0.447572 1.246540 -1.127363 0.124742 -0.179865 -1.555418 0.426041 -1.360668 -1.795110 1.666033 -0.638170 -0.554734 0.025544 -0.375040 -0.928453 0.360318 0.005471 -0.648870 0.734563 -0.131949 0.257032 -0.733903 0.981600 1.283364 0.443228 -0.556251 0.809047 1.301307 0.639607 -1.732917 0.481775 0.967216 -0.121711 -1.404374 -1.059102 -0.110849 -0.544868 -0.140152 0.017312 -0.294804 -0.321613 0.238785 1.590035 -0.685970 
之 0.088443 0.290023 -0.370848 -0.144748 0.048338 0.117778 -0.079769 0.359290 -0.113569 0.285651 -0.322714 -0.296706 0.258280 0.691824 0.798814 0.088371 -0.859390 -0.053920 -0.802261 -1.104346 0.214179 -0.107810 0.514376 -0.055946 0.216915 0.062364 -0.116281 0.863973 -0.610213 0.498883 0.237513 -0.254283 -0.497971 -0.194261 -0.365700 0.148293 0.800717 -0.716760 0.199805 -0.233873 0.122847 0.517773 0.160515 -0.430316 0.205640 0.533711 0.408451 0.334384 0.198542 0.066828 
点 -0.188003 0.026618 2.247143 -0.407578 -0.936127 0.340649 0.516018 0.626575 0.790938 1.547486 0.877140 0.139013 -1.035416 -0.829354 0.208512 1.343596 0.503878 0.054508 -0.057984 -0.040490 -0.926211 -0.029125 1.182891 -0.019481 -0.093665 -0.030915 -0.337479 -1.273339 1.263984 0.570771 -0.491347 0.091102 0.672815 0.234655 -0.954969 0.676168 0.609843 0.158433 0.987636 0.145061 -0.430665 -0.051483 -0.054934 -0.315201 -0.352750 -0.839036 0.523539 0.894967 -0.347950 1.033177 
合 1.809232 -0.785517 0.622697 -0.629441 -0.988509 -2.416820 -0.055894 -1.317580 -0.114204 1.232084 1.646343 -0.583936 -0.688941 -1.712314 -0.763033 -2.156805 0.419241 -0.153940 -1.313162 -1.919023 -0.255474 -0.276886 -1.790318 0.561730 -0.377234 1.036024 -0.303053 -2.436721 0.650835 0.702655 0.277902 -1.113765 -1.213031 -0.501239 -1.012346 0.041368 -2.041037 1.415590 -0.562248 -1.505850 -2.066181 0.078284 -2.982639 1.749606 -0.692011 -0.546399 0.182748 0.858978 0.829661 0.273450 
提 0.395673 -0.041649 0.191040 -0.563474 0.389531 -0.295321 -2.290795 0.933668 -0.163790 0.974859 0.519173 0.748196 0.796570 -1.955552 -0.186461 2.029198 -0.299845 -1.116922 0.157020 1.210393 -1.889798 -1.775306 0.372523 0.176073 1.460485 -0.353305 -1.345610 -0.389487 -0.197737 -0.501111 -0.816820 0.004400 1.536919 0.323102 -0.275874 -1.172018 0.276862 0.198733 0.242742 0.114393 -0.810961 -0.814512 -1.819290 2.952593 -0.878578 -0.436052 0.018597 -0.973911 -0.728242 -0.715057 
制 1.381813 -0.343320 1.163194 -0.562901 -0.108254 -0.882394 0.612142 1.117496 -1.786992 1.227034 1.540526 -0.798470 0.705127 -0.992363 -2.629004 -0.107998 -0.885377 0.580003 0.539259 0.020155 -1.961236 -0.307474 -0.665476 1.217609 -0.563707 0.621987 1.516106 -0.258857 0.367451 0.126197 0.600415 -1.270644 0.685039 0.598598 0.296893 -1.827594 -0.754796 0.052205 -0.737726 -1.387469 -2.181129 1.227674 -1.122040 0.348949 -2.260328 -0.671179 -1.223972 -0.535012 1.636721 -1.317032 
外 -0.623559 0.034938 -1.559938 -0.344036 0.122068 0.880678 -0.167405 0.641507 0.899313 -0.648599 -0.367370 0.069035 -0.100016 0.309651 0.390648 -1.177521 -1.020442 -0.734972 0.626957 -0.418876 0.393306 0.551863 0.135781 0.004621 -0.539465 0.462233 -1.169962 -0.747015 0.264299 0.326727 0.046575 -0.613176 -0.759990 0.532011 -0.206106 0.228242 -0.220853 -0.077707 -0.017412 0.777559 -0.229142 0.231064 -0.989069 -0.192982 0.572207 -0.158067 0.902141 0.114312 1.071091 -0.972531 
保 -0.258807 -0.303560 -0.100006 -2.096312 -0.776798 0.436540 0.336826 0.099047 0.843731 -0.243887 2.290850 -1.105714 0.506660 -2.128308 -2.855751 0.719297 -0.812001 -0.977267 1.387435 0.764199 0.558721 -3.635457 -0.124929 -0.493437 -0.349347 -1.136062 0.348998 -0.770692 0.365922 -1.154182 1.166219 2.002707 0.050736 0.444501 2.336411 -1.251033 -0.299646 -0.248319 -2.713336 -1.216758 -2.923521 1.724291 0.145507 1.799713 -0.685041 -0.972571 -3.084557 -1.912892 0.501220 0.579067 
情 1.404058 1.754587 0.206227 -1.112147 1.095961 -2.387268 -1.193106 0.066166 0.119695 -0.385583 -0.121727 -0.867304 1.215778 -0.560027 2.309299 0.353603 -0.309184 -2.257894 0.614680 -0.117178 0.196233 0.678923 -0.279026 -1.818720 0.420071 0.361276 -0.556733 1.315638 0.610867 0.051611 -1.201421 2.437494 -0.276200 1.733172 -0.270910 -0.610240 0.097924 -1.371235 1.610859 0.305969 -1.064628 0.827385 0.110564 -1.628438 -0.264520 2.376937 -1.758135 0.331885 1.054976 -0.928952 
起 -0.316284 0.174188 0.779902 0.246903 0.004283 0.394879 0.371289 -0.240989 0.661064 -0.139837 0.633258 0.073696 -0.431299 0.611580 0.684540 0.318983 -0.274710 0.302854 -0.537265 0.857332 -0.286673 0.333467 0.442987 -0.745243 -0.468998 -0.380558 -0.773704 0.260940 -0.828923 0.682412 -0.488672 0.320016 0.101122 0.057706 -0.960404 0.972610 -0.378824 -0.318380 0.932895 -0.006423 0.586301 -0.438872 0.040392 -0.335838 -0.688111 -0.009151 0.340707 0.951054 -0.299822 -0.288580 
产 1.051580 -0.035576 -2.635931 -0.353191 -2.853884 0.470337 0.358782 0.028809 -0.061369 1.021925 1.514649 -1.576448 -0.976897 -1.079182 -0.423533 -0.663076 -0.832386 0.762037 0.566976 0.741170 -0.929056 -0.212679 -0.544901 1.526577 0.230874 -0.107981 0.910819 -1.283224 2.957917 -0.116398 -0.445182 0.481459 -0.476318 -0.481240 -0.665822 -2.339922 -0.369480 2.269089 -1.160961 -1.338387 -1.335981 0.659632 -0.130654 0.522467 -0.698225 -0.319489 -1.017335 -0.453025 1.320554 -0.771559 
据 0.924660 1.958376 -2.701409 0.912888 1.695628 -1.416925 -2.089697 0.767502 1.044094 1.014073 0.915894 1.434824 0.107813 -0.424539 -1.293544 -0.378797 1.724460 -0.796995 0.893837 -0.003996 1.665744 0.628586 1.467012 0.176448 1.208695 -1.001200 -0.346857 0.477390 0.901103 0.215783 -0.183948 -1.604790 -0.865509 0.654501 1.212104 0.269779 -3.522825 2.183499 1.819520 1.629487 -0.278654 2.020533 -1.983152 -0.343997 2.579357 -0.111700 -0.015872 -0.867542 0.885990 -1.270209 
间 -0.515458 1.225053 -0.254836 -0.502014 -0.558509 -0.603336 1.015176 0.756594 0.569916 -0.171814 -1.287198 -1.154501 -0.246951 0.127165 -0.568333 1.204820 0.104679 -0.875931 0.162005 -0.997467 0.639797 -0.072356 0.032429 -1.985405 -1.391094 0.274868 -1.466713 -0.066073 0.384261 0.268765 -0.122442 -0.558865 -1.337293 0.892245 0.075473 0.218241 1.840904 -0.522553 0.360459 0.431417 -0.957860 0.498921 -0.179186 -0.351220 -0.821173 -0.538842 1.249494 0.192922 -0.076134 0.780397 
电 0.906257 0.859759 -0.307647 -2.665152 1.682742 0.421162 0.873602 1.188664 0.390736 0.372685 2.624092 -0.788640 -1.786836 -0.069613 -1.218987 -1.342504 2.226610 0.496850 0.025592 -0.225364 1.132030 0.793112 -0.838182 -0.578259 0.470132 -1.643974 -1.355998 -0.604222 -0.852919 -2.660871 -2.040079 -1.029913 -1.109512 -0.227135 0.500368 0.800001 1.338880 1.039065 -0.467606 0.787322 -0.033240 -0.884946 0.226548 0.299992 -2.073450 -1.473957 0.347775 1.606854 0.456464 -1.273786 
所 -0.313485 0.145610 -0.825964 -0.385075 -0.716954 0.713931 0.062177 0.617547 0.319545 -0.354357 -0.487794 0.781668 0.768784 -0.034475 0.614957 -0.721463 0.194349 -0.142200 0.626056 0.803645 -0.653672 0.026971 -0.048032 1.157327 -0.726127 0.857323 -0.634849 -0.425313 -0.979942 -0.433919 0.782785 -0.186125 -0.468607 0.161323 -0.529631 -0.470575 -0.209143 -0.316350 0.027230 0.402645 -0.893963 1.193581 0.323098 -0.053063 0.461422 1.000184 0.106728 -0.072529 -0.076334 -0.186076 
位 -0.634428 0.040362 0.681319 -0.634674 -1.029087 0.063831 -0.267569 0.447402 0.415816 0.478082 -1.678544 0.345337 0.571746 -0.294134 -0.111044 -1.187123 0.089423 0.676236 0.943571 1.131597 0.472645 -0.939106 1.603700 2.205284 -0.420210 0.804633 -0.346857 -0.685609 0.076155 -0.561534 0.273249 0.495070 -0.845012 -0.159984 0.008531 0.775591 0.936623 0.166747 0.479979 -0.609880 -0.833725 0.424069 -1.156795 -0.474624 0.177546 -0.582740 -0.063242 -0.074886 1.037582 0.632318 
内 -0.973822 -1.128613 -0.724194 -0.573128 -0.275021 0.478199 -1.125037 0.937865 -0.174984 0.187798 -0.372065 -0.676253 -0.230393 0.548989 0.295732 -0.682530 -0.032563 -0.958331 0.489337 -0.005637 -0.056431 0.432128 0.091565 -0.708902 -0.441122 -0.825354 -0.780947 -0.444192 0.396788 -0.060143 -0.279951 -0.444345 -0.299731 0.434334 -0.421036 -1.331506 0.360863 0.176935 -0.467277 0.713833 -0.909681 1.147394 -1.570243 -0.347970 -0.715468 -0.674946 0.169050 -1.125611 0.653070 -0.070066 
海 -1.888646 -0.649927 -0.201731 2.423484 0.329948 -0.949644 0.759776 0.895313 -0.623667 0.519210 0.535385 -1.424254 -0.568984 -0.979413 1.321380 -0.697420 0.164130 0.398419 -0.115941 -2.183687 0.648436 1.486122 0.014859 1.499929 -0.820243 -1.363407 -0.981633 -0.070773 -0.872523 -0.370273 0.302724 -0.033915 -1.150145 1.306772 1.564056 0.274474 -1.465072 -0.061781 0.195918 0.920309 -0.749306 0.471134 0.417913 1.149351 0.554271 -1.970330 -0.547469 -0.742744 0.236088 0.136054 
此 -0.046872 0.125675 -1.340763 -0.329360 0.943095 0.312337 -0.389537 -0.031098 0.039418 -0.540462 -0.355684 0.800438 0.307227 -1.108556 0.886693 -0.427752 -1.287835 0.219214 -0.491515 -0.616424 0.132720 -0.237774 1.268656 -0.813042 0.197532 0.794626 0.278965 0.255738 -0.343171 0.091917 0.550794 -0.291630 -0.821923 0.814039 -0.791449 0.598144 -0.757108 -0.046459 1.859585 0.667600 -0.014009 1.329375 -0.137906 0.223738 0.015269 0.381748 0.285981 -0.432435 0.605804 -0.261662 
着 -0.072866 0.242592 1.164593 1.314386 0.280855 0.669701 0.808417 -1.520253 0.952696 -0.695799 0.322666 -0.586753 -0.181745 0.854571 0.322614 -0.555271 -0.198523 0.827010 1.034338 0.672539 -0.323242 0.543299 -0.063709 -0.535751 -0.452834 -0.637190 -1.873879 0.055235 -1.021511 1.331403 -0.177131 1.171918 0.401381 1.017800 -1.280464 0.884496 1.115310 0.057506 -1.950804 0.524731 0.546166 -0.363082 0.126825 -1.334193 -0.385801 0.855237 0.237481 0.452898 -0.369690 0.405958 
从 -0.171847 0.759986 -0.329333 0.451852 0.056460 0.659511 0.282490 -0.628704 0.931382 0.473216 -0.378112 0.211890 -0.407863 -0.905113 -0.072887 0.434201 0.605173 0.332650 0.253973 0.362967 0.444695 0.417599 0.667433 -0.453718 -0.267542 -0.647706 -0.504787 0.693567 -0.303842 0.377124 -0.235879 -0.109479 -0.707374 -0.075834 0.034717 -0.010869 -0.255839 0.349002 0.557816 0.266507 0.089790 0.184662 0.284890 -0.458932 0.147793 -0.448835 0.102981 0.046369 0.524129 0.416096 
但 0.865556 1.176035 -0.914921 -0.452156 -0.394730 0.814925 -0.677785 -0.498003 -0.190295 -0.445625 -0.266912 -0.011398 0.342505 -0.351403 -0.014450 0.158569 -0.705809 -0.432343 0.559964 0.012147 0.568071 -0.545381 0.666402 -1.252102 0.202068 1.166586 -0.922989 0.147826 -1.358367 0.986350 1.187041 1.083350 -0.526633 -0.144303 -1.343289 0.466991 -0.032495 0.342380 0.349770 -0.051456 0.443132 0.911171 1.208902 -0.125211 0.486420 0.979067 0.334952 0.290582 1.037593 -0.308760 
已 -0.339435 0.417301 -1.124619 -0.566334 -0.387758 0.587347 -0.032038 -0.447415 0.923420 0.652416 -0.407375 0.146629 -0.613325 -0.433651 -0.269915 1.004595 -0.843677 0.096546 -0.263824 0.398836 0.626734 -0.255221 -0.067275 -1.149641 -0.679422 -0.175516 0.255060 1.585053 0.556395 1.156216 0.494604 0.054756 -1.436387 0.036007 -0.317638 0.234209 -1.114078 0.034933 0.773529 -0.027400 0.430063 0.516850 -0.765619 -0.078982 -0.434517 -0.222123 0.430454 -0.758968 -0.230470 -0.799313 
展 0.995785 -1.560762 -0.342102 1.249701 -0.869668 0.574561 1.493038 -0.410430 2.107610 1.064999 0.820604 -0.194896 -0.451886 -1.196594 1.203139 0.925641 -1.376660 -1.659923 0.399394 -0.755037 -2.601516 0.150634 -0.514027 0.768641 1.748733 -1.369266 -0.078195 0.170084 2.026593 2.068253 -1.786275 -0.628720 -0.566956 0.702609 -1.051551 -2.270625 -1.619797 1.456176 -1.413215 -0.066327 -2.602673 -1.298900 -0.624105 0.686938 -1.264221 -0.556818 -1.532902 -0.056689 -0.053677 -0.636335 
示 1.370487 -0.332181 -0.850859 -1.180933 0.475872 -0.527620 -2.587691 0.258070 1.154805 -1.251585 0.224269 1.556497 -0.164993 -1.693125 -0.490653 -1.128572 0.878952 0.365986 1.356903 -0.004962 0.476834 -0.003598 1.205724 -0.538749 1.390666 0.624313 0.524779 1.187700 -0.126754 -0.190895 0.777555 -0.607323 -1.844515 1.670229 -0.612411 -0.898161 -2.473043 1.120110 0.464943 0.277035 0.689625 -0.334235 -0.086999 0.848756 1.217018 -0.503875 0.126901 1.259296 -0.399954 -0.229745 
入 0.144276 0.697662 -0.054478 -0.087069 -1.727738 -0.081772 0.506842 0.588779 0.509638 0.215527 0.010046 -1.407217 1.775286 -0.525508 -0.991059 0.931833 -0.754526 0.981477 -0.353552 -0.109985 -0.437718 1.072610 -0.540712 1.101505 -0.323207 0.358386 -1.586335 0.255742 2.352067 1.113341 -0.096963 -0.679152 -0.518295 0.188571 -0.087920 -0.919275 -1.426147 -0.340414 -1.412662 -0.657430 -0.969907 0.681960 -0.801781 0.237032 0.799107 -1.130853 1.183933 0.105689 -0.155326 -0.340688 
省 -2.633811 -0.767024 0.319864 0.113323 -1.541565 -0.073016 0.767293 -0.414933 -0.450913 -0.837640 -1.993742 1.776258 -0.070452 -3.125574 0.374942 1.022592 4.033003 -1.462353 0.571487 0.313592 0.704724 -0.750322 -0.514993 1.217510 1.144806 -1.298670 2.365093 0.374136 0.222661 0.178755 -0.780970 -1.069062 -0.476577 0.720506 1.595928 -0.908755 -2.419845 1.808759 -0.264407 -1.098759 -2.761658 -0.859207 -1.479455 0.572250 -0.210946 -1.664410 -0.429081 -0.776040 -0.163410 0.403266 
美 -0.041579 -0.436309 -0.823759 0.135537 -0.421612 1.070410 -0.450253 1.897665 -0.050687 -0.604608 -0.635968 -0.306776 0.044025 1.461011 0.153439 -0.972998 -1.297868 0.316588 0.050826 -2.343468 -0.391178 0.643924 -0.538747 0.099612 -0.036525 0.128739 -0.511696 1.057661 0.639317 0.177742 -1.572165 0.080853 0.825170 -0.140754 0.432837 0.959719 -1.334243 0.767691 -0.038527 -0.072836 0.622057 1.066045 -0.100934 0.146153 1.182948 -0.115124 -0.639336 -0.679634 0.913185 -0.098099 
路 -1.341424 1.875522 -0.237151 0.805163 0.837021 -1.253709 0.398672 -0.013053 -0.648974 2.030803 0.040807 -0.356301 0.056707 -1.037170 1.131600 1.232708 1.743773 -0.107216 0.496492 -0.261260 0.915974 0.314243 1.947737 0.757253 -1.214523 -1.638297 -1.813206 -1.878018 -0.072763 0.985911 -0.357786 -2.255230 -1.663060 0.433292 0.358461 0.081455 1.227734 -1.687008 -1.549546 0.721425 -1.598036 -1.531705 0.508738 0.196201 -0.122603 0.044900 0.181344 -1.151698 -2.065638 -1.725440 
性 2.494295 0.919016 0.852557 -0.618336 -1.045248 1.231136 -0.408318 -0.028616 -1.697929 -0.188192 0.174511 -0.148011 0.419083 0.308713 0.275266 -0.289623 -1.812276 -2.129184 -0.563960 -0.720191 -1.656057 -0.486275 -0.557092 0.216350 0.758785 0.276806 -1.176528 -1.370284 0.564126 -0.172438 0.206456 1.601352 -0.081542 -0.154115 -0.720263 -0.008951 0.312213 0.601839 0.414156 -1.832496 -0.151939 0.422146 -1.044088 -0.568180 -0.089486 1.325659 0.056516 -1.136923 0.336656 -0.130212 
去 -0.568456 1.423390 0.224966 0.288131 0.069971 0.111866 1.009637 -1.174930 1.324777 -0.093420 -0.770197 0.158805 -0.079791 -0.205152 -0.293206 1.050319 0.366937 1.069557 0.431723 1.091865 0.825213 -0.527869 0.149235 -0.630932 -0.328661 -0.454656 -0.292343 1.026221 -0.141386 1.104485 -0.368469 0.490757 -0.417069 -0.069430 -0.671815 1.464570 0.058330 0.436534 0.690092 0.703815 0.708873 0.538480 0.917011 -0.277627 0.758281 0.063604 0.044163 0.656780 -0.351309 0.541623 
两 -0.479665 -0.161471 0.198658 0.541357 -0.558913 0.038727 0.089456 -0.148712 0.476428 -0.492244 -0.688777 0.332507 -0.063713 0.408230 0.450260 -0.129347 0.090918 0.256136 -0.072776 -0.143487 0.171152 0.475421 0.022206 -0.027406 -0.881058 0.100862 -0.721160 0.541812 0.237634 0.758434 0.071249 0.884376 -1.116652 0.082445 -0.030004 1.291005 1.124838 -0.462600 0.856924 0.141136 -0.107899 0.420565 -1.096118 -0.010571 -0.270063 -0.321981 0.327545 0.278752 -0.247180 0.017829 
没 0.723628 0.893152 -0.268312 -0.792969 -0.606294 0.157664 -0.003542 -1.521784 -0.053586 -0.739412 -0.193412 0.764162 0.458568 -0.261352 -0.301292 0.167883 -0.316162 0.667319 1.358533 0.714332 1.071324 -0.149794 0.252199 -1.338670 -0.480569 1.000993 -1.060789 0.152867 -1.957749 0.322217 1.024869 1.025425 0.190406 -0.564663 -1.605451 1.097838 0.181798 -0.030199 0.658609 1.289444 -0.109437 1.217572 1.181934 -0.058633 0.132685 1.055432 0.140287 0.567714 0.545810 0.013616 
并 0.616345 0.066135 -0.788603 -0.461989 0.184432 0.061975 -0.555032 -0.783223 0.292555 -0.143886 0.336416 0.422557 0.705818 -0.089954 -0.432324 -0.461038 -0.006613 -0.127561 -0.181954 0.184576 -0.376779 -0.355136 0.003506 -0.463350 0.543443 0.996724 -0.503031 0.255839 -0.556711 0.183933 0.897855 0.038941 0.064815 0.780311 -0.441028 -0.335857 0.167407 -1.027256 0.266308 0.298954 -0.006986 0.689651 -0.662825 -0.029361 -0.968896 0.746243 -0.136408 0.088179 1.111920 -1.366941 
明 1.734222 -0.541184 -0.413878 -0.239863 0.156176 -0.506697 -1.862738 0.342289 0.204337 0.724529 0.103506 1.327451 -0.106182 -1.294150 -0.392960 -1.004233 0.514203 -0.303538 1.391492 -0.964027 0.615234 -0.780624 0.575139 -1.185480 0.266965 0.517383 -0.003318 1.074803 -1.124215 0.296333 0.837850 0.543135 0.287499 1.424331 0.481204 -0.246452 -1.226773 0.004776 0.026500 -1.130740 0.255624 0.360128 -0.225579 -0.833742 1.180856 0.489930 0.053822 0.248333 0.018629 0.321100 
里 -1.260097 0.404616 -0.170331 0.373137 -0.233606 -0.348838 -0.600726 -0.521444 1.125695 -0.085107 -0.275277 0.023061 -0.462599 1.098744 -0.873103 0.664543 0.333065 -0.213848 0.430680 1.255082 0.709270 0.404527 0.190256 0.244614 -1.181439 -0.456494 -0.722301 -0.994521 -0.584910 0.650233 -0.360007 0.605054 -0.604005 -0.719339 -1.047634 2.130209 0.101355 -0.425540 -1.661505 1.755154 0.228759 0.105975 1.187339 -0.485883 0.175898 0.258457 0.820021 0.570987 0.068834 0.726047 
三 -0.604220 -0.635124 0.105797 0.691197 -1.155764 -0.605075 0.185399 0.619246 0.008297 0.060527 -1.006808 0.196825 -0.716132 -0.140743 0.700655 1.449779 0.493810 0.034905 -0.380997 -0.330087 0.014888 -0.256813 0.489841 0.746902 0.253309 -0.902001 1.139008 1.654726 0.512786 1.293445 0.176927 0.306010 -0.158240 0.176385 1.607485 1.158694 1.184577 0.219185 0.106919 -1.132133 -0.762118 0.191805 -1.213369 0.126189 -0.188249 -1.099836 0.526445 0.150393 0.025198 0.349498 
. -2.125812 -1.246543 1.463590 -0.400921 -1.925492 0.677595 -0.756402 1.793682 -1.715650 0.664472 -0.974711 -1.846101 0.212405 -0.064361 -3.057209 2.241580 1.137023 0.544505 0.479734 0.891863 0.040964 1.477105 -0.121564 -2.238209 -0.922993 0.901148 -0.345561 -2.083831 3.487817 -0.908189 -2.013871 1.236747 -1.783244 -3.160889 0.936748 -0.973465 0.098104 2.328146 1.215757 -1.671073 0.213527 -0.516902 0.337057 2.170270 0.945122 -1.672479 -0.383578 -0.634831 -1.682048 -2.933543 
万 -3.125972 -1.262761 -0.776580 0.022603 -1.625188 0.008044 0.197384 1.208281 0.271370 1.608283 -0.817211 -1.255881 1.215350 0.708129 -2.786112 1.317974 1.520241 0.615851 -0.485081 1.213420 0.299449 0.824012 -0.552578 -0.775810 -0.528475 0.736179 -0.124672 0.570422 2.089967 -0.641761 -1.216356 1.535292 -0.665097 -3.389075 -0.496749 0.069385 0.846098 0.393249 -0.541497 -0.365084 2.379280 0.801658 -0.674879 2.123020 1.976864 -1.329705 0.296732 0.183975 -1.559635 -2.859562 
委 -2.152671 -3.266762 1.093542 -0.477749 -0.316701 -1.401880 0.192286 -2.738696 0.039551 -1.771132 -1.992486 2.259077 1.972987 -1.197245 0.780306 0.713134 5.214238 -0.990311 0.743068 1.155336 0.281832 -1.509730 -0.564552 1.467772 2.028554 -0.513984 2.632192 0.083301 -1.354530 -0.649510 -1.248240 -1.982457 -0.996500 2.221944 1.676529 -0.991486 -3.537124 1.979421 -0.549085 -1.679832 -1.416381 -1.032013 -1.216189 0.411085 -1.526912 -1.789626 -0.063981 0.671565 1.102467 1.946766 
正 0.917270 0.041281 0.147091 -0.458140 0.000242 -0.083957 -0.082766 -0.729708 0.028216 0.000285 -0.547020 0.557754 0.173529 -0.588686 -0.552016 0.235683 -0.380563 -0.918918 0.058214 -0.511917 -0.367415 -0.463691 -0.000719 0.311752 -0.589790 0.246584 -0.140416 0.573643 -0.991701 0.270938 -0.066570 -0.923792 0.499416 1.037262 -0.225980 -0.393786 -0.597551 -0.690102 -0.185747 -0.290839 -0.413777 -1.006834 -0.277599 -0.493475 -0.949573 -0.128547 -0.340486 0.178590 0.513136 -0.140089 
金 -1.255490 -2.143071 -1.670235 0.728006 -2.093313 -1.472106 0.062906 0.556165 1.576861 2.351729 0.028087 -0.610903 1.252058 0.628490 -1.889612 -1.362716 -0.499643 1.174640 -0.548258 -0.072822 1.151092 0.396987 0.281138 -0.469739 1.896369 0.330404 1.443562 -0.037487 0.786145 -1.252839 -0.007804 1.718245 -0.227417 -0.900272 0.609175 -0.818442 -0.258893 -0.061373 -1.893276 -1.156485 -0.689291 1.411900 -0.701419 1.240286 0.942282 -0.009247 0.253177 -0.581216 0.430099 -0.320686 
平 0.348485 -1.553887 -0.397214 0.856554 -0.574921 0.598348 -0.801818 0.297796 0.203412 -0.510486 -0.724776 0.190124 0.207297 0.060921 -0.784490 0.657327 -0.147838 -0.696846 0.752462 -0.338241 -1.020856 -0.385652 -0.943897 -0.694241 -0.941934 -0.654686 -1.826859 -1.364645 0.019142 0.308203 -0.701121 0.677524 -1.445408 -0.238886 0.180606 -1.131731 0.111363 1.782075 -1.769377 -1.915503 -0.635428 -0.467106 0.160610 2.398594 -0.218295 -1.586529 1.208815 0.203245 -0.349398 0.058537 
设 -1.138937 -0.876268 0.886162 -1.259090 -0.313987 -0.776137 -0.569498 1.513692 0.587644 1.921098 1.101684 0.106324 0.219934 -1.206059 -2.369820 -0.222233 -1.874947 -1.980572 1.222411 -0.502942 -1.581739 -1.158206 0.194897 2.528611 -0.599311 -2.327733 0.502422 -1.552278 1.325626 1.941361 -1.033199 -0.937950 1.002392 -0.783690 -1.595697 -1.923932 0.236990 0.478292 -1.696095 -0.179746 -2.759047 -0.754842 -2.129511 0.637086 -2.018194 -1.977200 -0.705963 -1.871296 -0.233865 -0.519315 
相 0.064878 0.382172 0.123841 -1.513593 0.968711 0.179237 -0.473002 -0.263858 -0.871550 -0.525964 0.375144 0.523723 0.703439 0.206666 -0.421452 -1.680430 0.106380 -0.036122 -0.642711 -0.750038 -0.644726 -0.485513 1.000551 -0.289474 1.714132 1.225117 -0.083595 -0.605592 0.144910 0.576774 0.335514 0.978105 -1.315332 1.643973 -0.421721 0.467183 0.220829 -0.276334 0.815142 -0.612389 -2.230458 0.519765 -0.462265 -0.114983 0.029888 -0.167486 0.185976 -0.396678 -0.029032 -0.965759 
因 0.376417 1.011768 -1.782744 -1.034732 0.037197 0.656808 -0.449243 -1.185848 -1.183862 -0.262497 -0.482630 0.220013 0.402027 0.786204 0.630822 0.366825 -1.310850 -0.533202 -0.163435 -0.263874 0.991213 -0.495641 -0.193390 -0.019874 0.042901 0.591434 -0.897290 -0.812286 -0.080041 0.123695 0.717173 0.785504 0.020575 -0.627113 -0.238438 -0.146122 0.285677 0.339438 1.594468 -0.754261 0.139327 1.177018 0.763716 -1.329788 0.004687 0.983532 0.874074 -0.329330 0.882275 -0.529736 
资 0.153635 -1.379760 -2.503910 0.296752 -1.830958 0.293309 0.876851 1.116473 1.389461 1.370180 3.063200 -2.346732 2.366262 -0.109768 -2.484850 -0.644099 0.832044 1.911176 0.110383 0.035853 -0.636706 0.323345 -0.963140 0.311305 1.728672 1.266209 0.166692 -1.718130 1.914149 -0.315786 -0.151049 -0.272247 -0.003895 -0.724100 -2.321642 -2.058072 -0.849806 0.748253 -0.616007 -2.192343 -2.443728 1.671271 -0.911113 2.757241 1.489607 -2.178830 -0.901795 -0.991193 1.852600 -0.475204 
门 -2.181706 0.138206 -0.202645 -0.070146 -0.032671 -0.693513 0.568516 1.041073 0.735443 0.233277 -0.150694 0.887516 0.431495 -1.217460 0.552562 -1.041127 1.504859 -0.523914 1.261157 1.546705 0.621670 0.101024 1.725560 1.006413 -0.470745 -0.421773 -0.894541 -1.016199 -0.121798 0.084093 -0.034664 -0.881962 -0.574247 1.159212 0.469803 -0.055373 -0.911931 -0.770868 -0.465688 0.460610 -0.984338 0.234784 -1.526713 0.101857 -2.509319 0.017679 -0.869980 1.092996 0.556065 0.261727 
老 -0.300710 0.725905 -0.753910 -0.434843 -0.190683 -0.780846 -0.077359 -1.833072 1.078766 0.236670 -0.010195 -0.177769 0.370007 0.293131 0.259346 0.018312 -0.302336 0.301920 2.301365 2.033537 -0.272821 -1.415552 -0.484302 0.923039 -1.249068 -1.723799 0.908042 0.024950 -0.855041 -1.291902 0.297796 2.212831 -0.402890 -0.967448 -1.839880 2.071205 1.014575 -0.815585 -1.119643 -1.145290 0.780200 -0.583865 -0.061369 0.152464 1.528359 0.608399 -0.736469 -0.141343 -0.034880 0.703763 
院 -2.501297 1.421323 0.661420 1.331965 -0.071723 0.356971 -0.043002 -1.180973 2.083752 0.471845 0.405681 2.738072 1.501302 0.360898 0.859659 0.365087 0.466088 -1.623105 1.087297 1.952021 -0.688724 -0.316265 -1.930996 1.989950 0.373798 -1.123324 1.633543 1.098312 -0.323049 -2.074686 2.035980 -1.106800 -2.118463 0.041515 1.879998 -0.591668 -1.633280 0.760219 0.814238 -1.076200 0.260325 1.102218 -1.043776 2.138223 0.411135 0.057632 0.494936 -1.752850 0.850467 1.013437 
如 0.925815 0.082217 -1.189154 -1.006749 -0.099337 -1.155296 -0.389773 -0.998028 -1.055162 -0.721581 -1.642548 1.747628 -0.844131 -0.331433 -0.127315 -0.203839 -1.595368 -0.504552 0.266696 -0.156357 1.104092 0.903164 0.061440 -0.910504 0.864362 0.662079 -1.903986 0.152921 -1.121651 0.713799 0.913761 -0.008868 0.572323 -0.853537 -0.858228 -0.270284 -0.233103 0.511544 1.063865 -0.120970 -1.519715 0.763855 1.656743 -0.281176 -0.560053 0.741565 0.256180 -0.608568 -0.399457 0.057328 
题 2.213445 -0.559144 1.266743 -1.659060 0.822970 -0.087371 -0.803160 -1.335681 -0.244223 -1.248231 0.285359 2.007780 1.523381 -1.250358 2.382414 2.648616 -1.006272 -0.881729 0.413827 -0.238830 1.245823 -1.225481 0.527108 0.275831 1.153007 -0.796198 -0.576591 -1.476355 1.533473 -0.444394 -1.504580 2.056947 1.347895 0.746044 -0.314875 -0.671217 0.659296 1.065960 -0.795829 -0.059136 -0.670750 3.873707 0.167556 -0.290239 -1.289313 -2.464487 -1.054586 -1.125649 0.997039 0.536669 
文 1.538348 -2.393098 0.175409 0.867597 1.052867 0.454870 -2.121480 0.264017 0.367319 0.631642 -0.861211 0.724411 -0.437375 -0.816308 1.510426 -0.897155 0.749831 -0.578432 0.303961 -1.044647 -1.313605 -0.280381 -1.210278 0.958160 -0.296606 -1.227781 1.012801 1.372670 0.552137 -1.355719 -0.543683 -1.571824 0.690578 -0.176998 -0.313911 -2.083098 0.362433 -0.031876 -1.371375 -0.262198 -0.789037 0.687941 -0.052572 0.173971 1.662916 0.395953 -1.651826 -0.832073 0.074667 -0.678356 
北 -3.280478 -0.319614 0.031410 0.512693 0.534338 1.150617 1.050453 0.971072 0.841405 -0.812759 -1.661526 0.914434 -2.117434 -0.851832 0.594564 0.520341 2.345209 0.040827 -1.343964 -1.111621 2.553976 1.668390 0.630613 1.427695 -0.441914 -2.472675 -0.312985 -0.643436 -0.906552 -1.198969 0.449126 -1.262344 -1.226817 0.077541 1.444363 -1.156077 -0.844193 2.128822 0.166798 -0.627365 -2.588799 -0.558779 0.800036 -0.364990 0.316410 -1.779745 0.218847 -0.008585 -0.287399 -0.457947 
手 2.215551 1.366381 1.199057 1.043929 -0.590712 0.242002 1.455596 -0.208057 1.024693 -1.431024 1.076158 0.547543 -0.368424 -0.322251 -1.205057 -1.460182 0.135707 1.251839 -0.368187 0.393832 0.301408 1.602722 -0.368355 -0.039297 0.786321 1.221672 -0.715642 0.982007 -1.165197 0.090648 -0.139430 0.909009 -0.222610 -0.753744 0.545995 -0.061771 2.136216 -2.032743 -0.745829 -0.388063 0.226147 -0.920193 -1.228196 0.127134 -1.951011 0.556792 1.575278 1.132362 0.487821 0.004146 
看 0.789375 0.371087 1.109408 -0.663309 0.261732 0.869309 -0.435905 -0.845506 0.972995 0.207873 -0.053727 0.752650 -0.707964 -0.090617 0.558735 -0.356185 0.363961 0.079187 1.469803 1.279482 0.993611 0.111095 -0.081974 -0.854991 0.229783 0.303966 -1.048493 -0.025005 -1.293858 0.832893 0.457975 1.143975 -0.154115 0.523894 -0.659560 2.141591 -0.253814 -0.250603 -0.405800 0.622123 -0.022251 0.579574 1.639968 -1.532143 0.754353 -0.011365 0.179904 1.034264 0.411556 0.222003 
意 1.167183 -1.665060 0.166838 -1.021739 -0.773523 1.455503 -0.701528 -1.590678 -1.165188 -0.654368 -0.779050 0.511880 1.020044 -1.348593 0.963415 -0.292152 -1.278793 0.452571 -0.743754 -0.021779 -2.044339 -0.690206 0.665643 -0.227129 -0.365914 -0.283757 -2.250395 0.474396 -0.798137 -0.585505 0.157526 0.242759 2.246467 1.273050 -0.994367 1.436525 -0.340622 0.684266 -0.651611 0.822009 -0.258550 0.026527 0.048204 -0.223649 -0.070962 2.288399 -0.587648 -0.399562 -0.193687 -1.443593 
水 -0.649970 -0.088065 -0.158267 0.773643 -0.816107 0.104321 0.503648 1.406599 -1.353669 1.240327 1.349874 -1.712195 -0.933368 0.483588 -0.652194 0.520820 -0.003327 -0.781107 0.653277 0.331566 0.683816 -0.634979 -0.248972 -0.072219 -0.788809 -1.575581 -1.055135 -1.773098 0.774698 1.383363 0.630012 -0.059376 1.086248 -0.166393 -0.843510 -1.693521 -0.827627 -0.343935 -0.534694 -0.976724 -1.676770 0.150396 1.392996 1.308644 -0.224954 -0.614751 3.227408 0.032786 -0.489451 0.748853 
品 0.462817 1.818870 -2.062008 -1.099641 -1.758038 -0.517526 -1.208969 0.417941 -1.000472 0.018004 1.299184 -1.414385 -3.356119 -0.760158 0.249744 -0.906213 -0.195088 0.995846 0.321235 1.532248 -2.371480 -0.927828 -1.207275 0.518642 0.992839 1.384797 0.512185 -0.693539 1.330089 -1.326044 -0.326241 1.329838 1.249830 0.111473 2.206701 -1.925236 0.033988 1.060376 -2.016875 -0.505040 -0.619226 2.146917 0.863990 0.391417 -0.837710 -0.825254 -1.241783 0.031079 1.237641 -1.477349 
交 -0.504886 0.671653 -0.469411 0.311577 -0.726079 -0.529889 0.931572 0.188105 -0.264134 0.520110 -0.083780 1.034972 -0.219528 0.116730 -0.333325 -0.568259 1.001116 -0.386389 -0.903198 0.812932 0.717162 -0.583596 1.292521 0.444603 -0.173789 0.582901 -0.513146 -1.285912 0.371917 -0.577159 0.648672 -2.341851 -2.379348 2.683665 -0.685839 0.481746 0.160748 0.327757 -0.911441 0.288475 -1.717318 -1.220567 -1.612177 1.551032 -0.365937 0.215440 -0.320994 -0.860684 -0.748045 -2.904728 
期 -0.272188 0.967268 -0.651023 -0.484908 -0.199435 -0.907605 1.585127 0.893136 0.568578 0.940352 -1.706684 -1.316115 -0.277314 -0.560980 -0.831068 0.888149 -0.190383 -1.458838 -0.235608 -1.167550 0.368006 -0.814564 0.026300 -1.132032 0.357724 0.991282 -0.974859 0.844713 0.580348 0.523390 0.651069 -1.233463 -0.623246 0.838039 0.730237 -0.194465 1.260293 0.714029 1.460695 -1.298334 -0.454349 0.610360 0.136732 -0.040072 0.046723 -1.345333 0.326508 0.109650 0.699912 -0.066513 
第 0.004688 -0.803469 1.076950 0.586727 -1.195599 -1.374654 -0.037919 0.295764 0.597000 -0.224068 -1.466752 0.281189 -1.201225 -0.479721 0.390297 2.047009 0.605209 0.342400 -1.484443 -0.681824 0.227229 -0.890010 1.543060 0.980420 0.348422 -0.445188 1.671615 2.828732 -0.268894 0.785062 -0.029533 0.328381 -0.566396 -1.266900 2.715483 1.657446 0.663667 0.561067 1.219723 -1.800694 -0.879977 -0.658113 -2.637580 -0.211268 0.275946 -1.054834 1.002115 0.733324 1.199569 0.613067 
城 -2.222563 -0.411654 -0.253532 1.082051 -1.054908 0.205086 -0.663352 2.093517 0.787735 1.567884 -0.344288 0.190528 -1.151803 -1.117931 1.076698 1.887139 0.049239 -0.657888 0.790650 0.356441 -0.469264 -1.062671 -0.362523 2.064106 -0.645487 -3.140856 0.301875 -1.859334 1.353041 1.227372 -0.458866 -0.261273 -1.305005 0.400504 -0.653158 -0.049024 -0.231663 0.999277 -1.503562 -0.972805 -2.919398 -0.817190 0.500236 0.334396 -0.384696 -0.861046 -0.996641 -0.396147 -0.857574 0.513642 
问 0.848504 -1.469041 0.291974 -0.153034 0.855975 1.196665 -0.123586 -2.713649 -0.057538 0.333418 0.395171 1.706233 2.331533 -1.527413 1.693920 1.584443 -1.353140 0.066769 1.155646 0.931426 0.206299 -1.225904 1.233059 0.542123 0.293244 1.037896 0.363021 -2.393730 1.453541 -1.282747 -0.886721 1.237704 0.714753 2.756711 -0.233424 -0.142812 1.899996 1.109362 1.641736 1.216543 -0.929009 1.073483 1.808152 -0.392078 -0.640129 0.677898 -0.442359 -0.692753 1.409382 0.370534 
然 1.085566 3.259773 -0.463284 0.758967 0.101686 2.427716 -1.353563 0.130201 -0.543510 -0.076437 1.034420 0.080691 -0.512576 0.414965 -0.935499 -0.474251 -0.945145 1.638351 -0.640728 -0.154539 0.867025 -0.766840 2.097875 -0.491256 -0.281197 -0.031398 -0.525342 0.783520 -2.302227 1.674978 1.425513 0.285627 -1.190374 0.319648 -2.678107 -0.431384 -1.201560 1.644735 -0.590663 -1.452364 2.122518 0.147888 1.001696 -0.328034 1.719106 0.707412 0.889864 0.943376 1.397308 -0.532359 
调 0.840949 0.643178 -0.283384 -0.237636 1.158498 -0.767577 -1.013516 0.159170 0.024193 0.456347 1.013352 0.884862 1.497065 -1.803347 -0.817386 0.880893 0.414938 -0.948033 0.442473 1.322318 -0.907015 -0.598754 -0.465658 1.114593 1.151899 1.355724 -1.306646 0.221810 1.289914 1.277852 -0.594546 -0.165156 -1.721158 0.983301 -0.966096 -1.135756 -2.528906 0.448454 1.564698 -1.571671 -1.307315 0.040334 -0.906805 -0.290532 -2.666641 -1.882647 -0.079113 0.574078 0.182187 0.377493 
管 -0.489917 0.538795 0.008272 -1.426873 -0.233254 -0.482219 -0.051220 -1.218796 -1.175323 1.768763 0.822811 -0.561652 0.799717 -1.045310 -1.617393 -1.056988 1.357809 -1.125329 1.305112 1.705826 1.023028 -0.626183 0.307751 0.954500 0.246483 -0.200929 1.281450 -1.462168 -0.267849 -0.134482 1.493096 -0.891861 0.311205 1.337996 -0.312869 -2.877420 -2.367740 0.287360 -1.872185 -0.986568 -2.922193 0.553300 -1.765575 1.370024 -1.784872 -0.763659 -0.408759 -0.470762 1.353271 -0.262826 
很 1.298141 0.473852 0.513677 -1.118727 -0.260250 0.700141 0.025638 -0.755594 -0.319282 -0.500396 -0.298528 -0.309542 -0.543117 -0.068273 0.745864 0.138736 -0.692923 -1.170079 0.894664 0.555895 0.094336 -0.309818 0.556348 -0.924484 0.717284 1.013734 -1.821523 -0.171636 -0.921359 0.563631 0.150259 1.105008 0.367155 -0.109433 -2.666289 1.036018 0.076852 0.560211 -0.660009 0.420856 -0.217067 -0.215699 1.742341 -0.472012 0.888789 1.213571 0.433130 0.105510 0.907649 -0.300642 
身 1.634796 0.817128 0.085672 -0.007546 -0.534528 0.977199 -0.305305 -0.480893 -0.247068 -1.740675 0.019266 -0.743046 0.108920 -0.267685 -0.627095 -2.601546 -0.946525 0.067642 -0.155230 0.771016 0.143042 -0.351860 -0.268061 -0.734761 -0.652328 -1.228194 -2.389353 -0.219575 -0.560802 0.514968 0.277109 1.320165 -0.441411 0.528285 0.421846 1.337444 -0.264519 -0.083569 -0.069415 -0.395427 0.930926 0.741970 -0.663775 -1.242717 -0.150770 1.464104 -0.378898 -0.690726 0.040561 0.205318 
任 -1.308338 -2.591148 -0.764338 -1.895561 0.323597 -2.443752 1.521706 -2.919629 -1.075110 0.186857 -2.679977 0.245695 1.984130 -0.890230 -0.677089 -0.997570 -0.330023 -0.568782 2.231539 -0.256635 -0.350887 -2.081762 0.991813 0.740038 1.847590 1.086832 1.674329 -0.523064 -1.635244 -1.255179 0.042854 -0.759520 -1.102452 0.000046 0.641868 -1.617412 -0.981743 0.781746 0.910915 -0.726994 -0.149702 -0.060220 -0.322096 -0.595679 -1.497084 0.150433 -0.453916 -1.294401 0.795840 1.715619 
